<?xml version="1.0"?>
<opencv_storage>
<cascade>
  <stageType>BOOST</stageType>
  <featureType>HAAR</featureType>
  <height>24</height>
  <width>24</width>
  <stageParams>
    <boostType>GAB</boostType>
    <minHitRate>9.9500000476837158e-01</minHitRate>
    <maxFalseAlarm>5.0000000000000000e-01</maxFalseAlarm>
    <weightTrimRate>9.4999999999999996e-01</weightTrimRate>
    <maxDepth>1</maxDepth>
    <maxWeakCount>100</maxWeakCount></stageParams>
  <featureParams>
    <maxCatCount>0</maxCatCount>
    <featSize>1</featSize>
    <mode>BASIC</mode></featureParams>
  <stageNum>20</stageNum>
  <stages>
    <!-- stage 0 -->
    <_>
      <maxWeakCount>8</maxWeakCount>
      <stageThreshold>-7.1381324529647827e-01</stageThreshold>
      <weakClassifiers>
        <_>
          <internalNodes>
            0 -1 20 6.4460635185241699e-03</internalNodes>
          <leafValues>
            -2.3181818425655365e-01 8.3888888359069824e-01</leafValues></_>
        <_>
          <internalNodes>
            0 -1 114 1.0056087747216225e-02</internalNodes>
          <leafValues>
            -2.5274980068206787e-01 7.9917311668395996e-01</leafValues></_>
        <_>
          <internalNodes>
            0 -1 229 1.5890889335423708e-03</internalNodes>
          <leafValues>
            -3.3519333600997925e-01 5.9451138973236084e-01</leafValues></_>
        <_>
          <internalNodes>
            0 -1 75 7.0143351331353188e-03</internalNodes>
          <leafValues>
            -3.4524133801460266e-01 6.5359669923782349e-01</leafValues></_>
        <_>
          <internalNodes>
            0 -1 262 5.2452492527663708e-03</internalNodes>
          <leafValues>
            -3.5435447096824646e-01 5.5463731288909912e-01</leafValues></_>
        <_>
          <internalNodes>
            0 -1 94 -1.4054367784410715e-03</internalNodes>
          <leafValues>
            4.2720818519592285e-01 -5.5929780006408691e-01</leafValues></_>
        <_>
          <internalNodes>
            0 -1 135 -1.5231378376483917e-02</internalNodes>
          <leafValues>
            8.0725055932998657e-01 -2.6870542764663696e-01</leafValues></_>
        <_>
          <internalNodes>
            0 -1 4 -4.5893415808677673e-02</internalNodes>
          <leafValues>
            8.9668267965316772e-01 -2.6195070147514343e-01</leafValues></_></weakClassifiers></_>
    <!-- stage 1 -->
    <_>
      <maxWeakCount>9</maxWeakCount>
      <stageThreshold>-9.2213255167007446e-01</stageThreshold>
      <weakClassifiers>
        <_>
          <internalNodes>
            0 -1 17 -3.5032383166253567e-03</internalNodes>
          <leafValues>
            5.6815922260284424e-01 -2.8739497065544128e-01</leafValues></_>
        <_>
          <internalNodes>
            0 -1 115 4.5432224869728088e-03</internalNodes>
          <leafValues>
            -4.1292595863342285e-01 5.0099831819534302e-01</leafValues></_>
        <_>
          <internalNodes>
            0 -1 33 6.6861696541309357e-03</internalNodes>
          <leafValues>
            -4.1070216894149780e-01 4.5819300413131714e-01</leafValues></_>
        <_>
          <internalNodes>
            0 -1 219 3.7202939391136169e-02</internalNodes>
          <leafValues>
            -2.2470338642597198e-01 8.9479351043701172e-01</leafValues></_>
        <_>
          <internalNodes>
            0 -1 193 -2.3236859589815140e-02</internalNodes>
          <leafValues>
            8.0469495058059692e-01 -3.0715250968933105e-01</leafValues></_>
        <_>
          <internalNodes>
            0 -1 162 -7.9671544954180717e-03</internalNodes>
          <leafValues>
            5.9317892789840698e-01 -2.6612317562103271e-01</leafValues></_>
        <_>
          <internalNodes>
            0 -1 290 -2.7182917110621929e-03</internalNodes>
          <leafValues>
            6.3344532251358032e-01 -2.1499191224575043e-01</leafValues></_>
        <_>
          <internalNodes>
            0 -1 106 5.8986078947782516e-03</internalNodes>
          <leafValues>
            -2.6790353655815125e-01 5.9056651592254639e-01</leafValues></_>
        <_>
          <internalNodes>
            0 -1 165 -7.0118214935064316e-03</internalNodes>
          <leafValues>
            6.0086989402770996e-01 -2.4478565156459808e-01</leafValues></_></weakClassifiers></_>
    <!-- stage 2 -->
    <_>
      <maxWeakCount>14</maxWeakCount>
      <stageThreshold>-1.1092191934585571e+00</stageThreshold>
      <weakClassifiers>
        <_>
          <internalNodes>
            0 -1 19 9.1296061873435974e-03</internalNodes>
          <leafValues>
            -1.0352423042058945e-01 7.1387284994125366e-01</leafValues></_>
        <_>
          <internalNodes>
            0 -1 124 -5.8310117572546005e-02</internalNodes>
          <leafValues>
            7.2926670312881470e-01 -1.5724471211433411e-01</leafValues></_>
        <_>
          <internalNodes>
            0 -1 238 3.2199915498495102e-02</internalNodes>
          <leafValues>
            -2.9799884557723999e-01 7.9034882783889771e-01</leafValues></_>
        <_>
          <internalNodes>
            0 -1 231 1.5001525171101093e-03</internalNodes>
          <leafValues>
            -2.3517633974552155e-01 4.5262786746025085e-01</leafValues></_>
        <_>
          <internalNodes>
            0 -1 63 -1.3325768522918224e-02</internalNodes>
          <leafValues>
            5.8734107017517090e-01 -3.1234166026115417e-01</leafValues></_>
        <_>
          <internalNodes>
            0 -1 74 -1.1189840734004974e-02</internalNodes>
          <leafValues>
            6.6268032789230347e-01 -1.5155717730522156e-01</leafValues></_>
        <_>
          <internalNodes>
            0 -1 273 -1.2913350015878677e-02</internalNodes>
          <leafValues>
            6.4253485202789307e-01 -2.5607219338417053e-01</leafValues></_>
        <_>
          <internalNodes>
            0 -1 101 7.8972177579998970e-03</internalNodes>
          <leafValues>
            -2.0486815273761749e-01 5.6033450365066528e-01</leafValues></_>
        <_>
          <internalNodes>
            0 -1 272 3.9705395465716720e-04</internalNodes>
          <leafValues>
            2.7476331591606140e-01 -5.4724305868148804e-01</leafValues></_>
        <_>
          <internalNodes>
            0 -1 50 -3.6846539005637169e-03</internalNodes>
          <leafValues>
            6.1235725879669189e-01 -1.9557143747806549e-01</leafValues></_>
        <_>
          <internalNodes>
            0 -1 285 8.9007690548896790e-03</internalNodes>
          <leafValues>
            -1.5278512239456177e-01 8.0677056312561035e-01</leafValues></_>
        <_>
          <internalNodes>
            0 -1 110 -7.4795871041715145e-03</internalNodes>
          <leafValues>
            5.4549694061279297e-01 -2.1712599694728851e-01</leafValues></_>
        <_>
          <internalNodes>
            0 -1 170 -1.1490318924188614e-02</internalNodes>
          <leafValues>
            8.1477254629135132e-01 -1.4655220508575439e-01</leafValues></_>
        <_>
          <internalNodes>
            0 -1 155 1.5272421296685934e-03</internalNodes>
          <leafValues>
            2.8421261906623840e-01 -5.2491015195846558e-01</leafValues></_></weakClassifiers></_>
    <!-- stage 3 -->
    <_>
      <maxWeakCount>11</maxWeakCount>
      <stageThreshold>-9.1862416267395020e-01</stageThreshold>
      <weakClassifiers>
        <_>
          <internalNodes>
            0 -1 14 1.1619821190834045e-02</internalNodes>
          <leafValues>
            -1.2050739675760269e-01 7.8593271970748901e-01</leafValues></_>
        <_>
          <internalNodes>
            0 -1 129 3.0775515362620354e-02</internalNodes>
          <leafValues>
            -1.6085766255855560e-01 8.4175193309783936e-01</leafValues></_>
        <_>
          <internalNodes>
            0 -1 103 -9.0434607118368149e-03</internalNodes>
          <leafValues>
            -5.6735801696777344e-01 2.7539190649986267e-01</leafValues></_>
        <_>
          <internalNodes>
            0 -1 138 -7.1435615420341492e-02</internalNodes>
          <leafValues>
            -7.2809565067291260e-01 2.3404331505298615e-01</leafValues></_>
        <_>
          <internalNodes>
            0 -1 211 -5.5395072558894753e-04</internalNodes>
          <leafValues>
            -5.5271744728088379e-01 2.2922633588314056e-01</leafValues></_>
        <_>
          <internalNodes>
            0 -1 174 -2.1952774375677109e-02</internalNodes>
          <leafValues>
            6.2527757883071899e-01 -2.5308951735496521e-01</leafValues></_>
        <_>
          <internalNodes>
            0 -1 241 3.7595063913613558e-03</internalNodes>
          <leafValues>
            -3.5601028800010681e-01 4.1248446702957153e-01</leafValues></_>
        <_>
          <internalNodes>
            0 -1 233 1.3519086642190814e-03</internalNodes>
          <leafValues>
            2.5046807527542114e-01 -5.6862008571624756e-01</leafValues></_>
        <_>
          <internalNodes>
            0 -1 30 1.1041666381061077e-02</internalNodes>
          <leafValues>
            -1.9274881482124329e-01 8.6109173297882080e-01</leafValues></_>
        <_>
          <internalNodes>
            0 -1 270 3.0445985030382872e-03</internalNodes>
          <leafValues>
            -3.0972191691398621e-01 3.9229112863540649e-01</leafValues></_>
        <_>
          <internalNodes>
            0 -1 87 1.0467583313584328e-02</internalNodes>
          <leafValues>
            -3.7408131361007690e-01 3.1479984521865845e-01</leafValues></_></weakClassifiers></_>
    <!-- stage 4 -->
    <_>
      <maxWeakCount>15</maxWeakCount>
      <stageThreshold>-1.2262661457061768e+00</stageThreshold>
      <weakClassifiers>
        <_>
          <internalNodes>
            0 -1 16 1.0389364324510098e-02</internalNodes>
          <leafValues>
            -1.1657754331827164e-01 7.6541352272033691e-01</leafValues></_>
        <_>
          <internalNodes>
            0 -1 231 1.3485776726156473e-03</internalNodes>
          <leafValues>
            -2.7775347232818604e-01 4.4464409351348877e-01</leafValues></_>
        <_>
          <internalNodes>
            0 -1 130 1.8355153501033783e-02</internalNodes>
          <leafValues>
            -2.2469314932823181e-01 6.1365789175033569e-01</leafValues></_>
        <_>
          <internalNodes>
            0 -1 49 5.5795889347791672e-03</internalNodes>
          <leafValues>
            -2.0032639801502228e-01 6.6581755876541138e-01</leafValues></_>
        <_>
          <internalNodes>
            0 -1 112 3.2409970299340785e-04</internalNodes>
          <leafValues>
            2.9062488675117493e-01 -4.4393217563629150e-01</leafValues></_>
        <_>
          <internalNodes>
            0 -1 78 -2.2023051977157593e-02</internalNodes>
          <leafValues>
            6.6765338182449341e-01 -1.6793042421340942e-01</leafValues></_>
        <_>
          <internalNodes>
            0 -1 39 -5.9835053980350494e-02</internalNodes>
          <leafValues>
            7.9311943054199219e-01 -1.6934779286384583e-01</leafValues></_>
        <_>
          <internalNodes>
            0 -1 234 7.2344988584518433e-02</internalNodes>
          <leafValues>
            -1.3905200362205505e-01 6.9034969806671143e-01</leafValues></_>
        <_>
          <internalNodes>
            0 -1 85 7.1646329015493393e-03</internalNodes>
          <leafValues>
            2.7261391282081604e-01 -5.0563526153564453e-01</leafValues></_>
        <_>
          <internalNodes>
            0 -1 189 3.5121347755193710e-03</internalNodes>
          <leafValues>
            -2.9636824131011963e-01 4.4802024960517883e-01</leafValues></_>
        <_>
          <internalNodes>
            0 -1 207 -3.9654955267906189e-02</internalNodes>
          <leafValues>
            6.8783921003341675e-01 -1.4448833465576172e-01</leafValues></_>
        <_>
          <internalNodes>
            0 -1 279 1.6588993370532990e-02</internalNodes>
          <leafValues>
            -1.7400085926055908e-01 6.1959546804428101e-01</leafValues></_>
        <_>
          <internalNodes>
            0 -1 196 -3.6714072339236736e-03</internalNodes>
          <leafValues>
            -7.6875036954879761e-01 2.0108778774738312e-01</leafValues></_>
        <_>
          <internalNodes>
            0 -1 10 -4.8393644392490387e-03</internalNodes>
          <leafValues>
            4.3276345729827881e-01 -2.7935716509819031e-01</leafValues></_>
        <_>
          <internalNodes>
            0 -1 107 -4.6159061603248119e-03</internalNodes>
          <leafValues>
            -6.9457185268402100e-01 1.8947121500968933e-01</leafValues></_></weakClassifiers></_>
    <!-- stage 5 -->
    <_>
      <maxWeakCount>13</maxWeakCount>
      <stageThreshold>-7.8584545850753784e-01</stageThreshold>
      <weakClassifiers>
        <_>
          <internalNodes>
            0 -1 82 -1.0485595092177391e-02</internalNodes>
          <leafValues>
            -3.3940774202346802e-01 4.7286820411682129e-01</leafValues></_>
        <_>
          <internalNodes>
            0 -1 222 -1.5641357004642487e-01</internalNodes>
          <leafValues>
            7.8727608919143677e-01 -1.5375885367393494e-01</leafValues></_>
        <_>
          <internalNodes>
            0 -1 7 2.4855630472302437e-02</internalNodes>
          <leafValues>
            -1.9841344654560089e-01 5.6085008382797241e-01</leafValues></_>
        <_>
          <internalNodes>
            0 -1 28 8.7278448045253754e-03</internalNodes>
          <leafValues>
            -1.2271174788475037e-01 7.8240859508514404e-01</leafValues></_>
        <_>
          <internalNodes>
            0 -1 181 2.2477029415313154e-04</internalNodes>
          <leafValues>
            2.5243890285491943e-01 -4.3204092979431152e-01</leafValues></_>
        <_>
          <internalNodes>
            0 -1 104 -1.6166742891073227e-02</internalNodes>
          <leafValues>
            3.0248349905014038e-01 -3.8120242953300476e-01</leafValues></_>
        <_>
          <internalNodes>
            0 -1 9 1.5552379190921783e-02</internalNodes>
          <leafValues>
            -2.0699042081832886e-01 4.3747228384017944e-01</leafValues></_>
        <_>
          <internalNodes>
            0 -1 89 -1.1283079162240028e-02</internalNodes>
          <leafValues>
            4.4024586677551270e-01 -2.6690092682838440e-01</leafValues></_>
        <_>
          <internalNodes>
            0 -1 240 -8.2106851041316986e-03</internalNodes>
          <leafValues>
            6.7848527431488037e-01 -1.5468297898769379e-01</leafValues></_>
        <_>
          <internalNodes>
            0 -1 214 5.7384446263313293e-03</internalNodes>
          <leafValues>
            1.7256347835063934e-01 -7.3647886514663696e-01</leafValues></_>
        <_>
          <internalNodes>
            0 -1 70 1.2528538703918457e-02</internalNodes>
          <leafValues>
            1.5147894620895386e-01 -6.1300021409988403e-01</leafValues></_>
        <_>
          <internalNodes>
            0 -1 263 -1.9061197526752949e-03</internalNodes>
          <leafValues>
            5.7741266489028931e-01 -1.7547281086444855e-01</leafValues></_>
        <_>
          <internalNodes>
            0 -1 205 1.6548053827136755e-03</internalNodes>
          <leafValues>
            1.6063989698886871e-01 -6.4100182056427002e-01</leafValues></_></weakClassifiers></_>
    <!-- stage 6 -->
    <_>
      <maxWeakCount>11</maxWeakCount>
      <stageThreshold>-7.8060334920883179e-01</stageThreshold>
      <weakClassifiers>
        <_>
          <internalNodes>
            0 -1 187 1.9262135028839111e-03</internalNodes>
          <leafValues>
            4.2011833190917969e-01 -6.7741936445236206e-01</leafValues></_>
        <_>
          <internalNodes>
            0 -1 79 1.5737846493721008e-02</internalNodes>
          <leafValues>
            -2.5087657570838928e-01 6.0382527112960815e-01</leafValues></_>
        <_>
          <internalNodes>
            0 -1 21 4.5402169227600098e-02</internalNodes>
          <leafValues>
            -2.1349471807479858e-01 6.6781598329544067e-01</leafValues></_>
        <_>
          <internalNodes>
            0 -1 191 -5.0508890300989151e-02</internalNodes>
          <leafValues>
            7.6715946197509766e-01 -1.5076673030853271e-01</leafValues></_>
        <_>
          <internalNodes>
            0 -1 77 -3.7670508027076721e-02</internalNodes>
          <leafValues>
            6.3135957717895508e-01 -2.3129895329475403e-01</leafValues></_>
        <_>
          <internalNodes>
            0 -1 118 3.1796969473361969e-02</internalNodes>
          <leafValues>
            2.4379850924015045e-01 -6.5078634023666382e-01</leafValues></_>
        <_>
          <internalNodes>
            0 -1 277 -7.6973866671323776e-03</internalNodes>
          <leafValues>
            2.6233378052711487e-01 -4.0003880858421326e-01</leafValues></_>
        <_>
          <internalNodes>
            0 -1 206 5.9714972972869873e-02</internalNodes>
          <leafValues>
            -2.4075722694396973e-01 6.0800611972808838e-01</leafValues></_>
        <_>
          <internalNodes>
            0 -1 117 -1.1327887186780572e-03</internalNodes>
          <leafValues>
            -6.7192965745925903e-01 2.0853370428085327e-01</leafValues></_>
        <_>
          <internalNodes>
            0 -1 131 -6.0436036437749863e-03</internalNodes>
          <leafValues>
            -7.6711690425872803e-01 1.3920931518077850e-01</leafValues></_>
        <_>
          <internalNodes>
            0 -1 157 -4.0894728153944016e-03</internalNodes>
          <leafValues>
            -6.5851646661758423e-01 1.7001789808273315e-01</leafValues></_></weakClassifiers></_>
    <!-- stage 7 -->
    <_>
      <maxWeakCount>17</maxWeakCount>
      <stageThreshold>-9.8546761274337769e-01</stageThreshold>
      <weakClassifiers>
        <_>
          <internalNodes>
            0 -1 150 2.7509357780218124e-02</internalNodes>
          <leafValues>
            -8.6289551109075546e-03 7.3429083824157715e-01</leafValues></_>
        <_>
          <internalNodes>
            0 -1 247 -1.6372314712498337e-04</internalNodes>
          <leafValues>
            3.3500075340270996e-01 -3.8220021128654480e-01</leafValues></_>
        <_>
          <internalNodes>
            0 -1 253 8.2032624632120132e-03</internalNodes>
          <leafValues>
            1.7032957077026367e-01 -5.5051904916763306e-01</leafValues></_>
        <_>
          <internalNodes>
            0 -1 105 -4.9734226195141673e-04</internalNodes>
          <leafValues>
            2.7777743339538574e-01 -3.5548374056816101e-01</leafValues></_>
        <_>
          <internalNodes>
            0 -1 235 1.3651791028678417e-02</internalNodes>
          <leafValues>
            -1.9528278708457947e-01 7.0686346292495728e-01</leafValues></_>
        <_>
          <internalNodes>
            0 -1 166 -1.0719811543822289e-02</internalNodes>
          <leafValues>
            6.1369502544403076e-01 -1.1875579506158829e-01</leafValues></_>
        <_>
          <internalNodes>
            0 -1 52 -2.0858995616436005e-02</internalNodes>
          <leafValues>
            5.9679955244064331e-01 -1.5698613226413727e-01</leafValues></_>
        <_>
          <internalNodes>
            0 -1 167 -2.4546294007450342e-03</internalNodes>
          <leafValues>
            -6.4202255010604858e-01 1.5687806904315948e-01</leafValues></_>
        <_>
          <internalNodes>
            0 -1 147 -1.7854481702670455e-03</internalNodes>
          <leafValues>
            4.4012632966041565e-01 -2.2292400896549225e-01</leafValues></_>
        <_>
          <internalNodes>
            0 -1 93 -1.6608504578471184e-02</internalNodes>
          <leafValues>
            3.3622968196868896e-01 -3.4277936816215515e-01</leafValues></_>
        <_>
          <internalNodes>
            0 -1 169 4.3488517403602600e-03</internalNodes>
          <leafValues>
            1.1425098776817322e-01 -8.8053262233734131e-01</leafValues></_>
        <_>
          <internalNodes>
            0 -1 231 1.9381546881049871e-03</internalNodes>
          <leafValues>
            -3.0629003047943115e-01 3.1521525979042053e-01</leafValues></_>
        <_>
          <internalNodes>
            0 -1 123 -2.9173528775572777e-02</internalNodes>
          <leafValues>
            6.9461500644683838e-01 -1.3878329098224640e-01</leafValues></_>
        <_>
          <internalNodes>
            0 -1 177 9.9088232673238963e-05</internalNodes>
          <leafValues>
            2.3803249001502991e-01 -4.1863664984703064e-01</leafValues></_>
        <_>
          <internalNodes>
            0 -1 113 2.0047007128596306e-03</internalNodes>
          <leafValues>
            1.6251163184642792e-01 -5.5503934621810913e-01</leafValues></_>
        <_>
          <internalNodes>
            0 -1 255 3.2596680102869868e-04</internalNodes>
          <leafValues>
            -2.7269726991653442e-01 3.1518769264221191e-01</leafValues></_>
        <_>
          <internalNodes>
            0 -1 60 1.1483930051326752e-02</internalNodes>
          <leafValues>
            -1.7151249945163727e-01 4.8874592781066895e-01</leafValues></_></weakClassifiers></_>
    <!-- stage 8 -->
    <_>
      <maxWeakCount>12</maxWeakCount>
      <stageThreshold>-5.5894649028778076e-01</stageThreshold>
      <weakClassifiers>
        <_>
          <internalNodes>
            0 -1 142 -3.6463907454162836e-03</internalNodes>
          <leafValues>
            6.6867470741271973e-01 -4.7008547931909561e-02</leafValues></_>
        <_>
          <internalNodes>
            0 -1 97 2.6670887600630522e-03</internalNodes>
          <leafValues>
            -2.4504654109477997e-01 4.7777372598648071e-01</leafValues></_>
        <_>
          <internalNodes>
            0 -1 291 -2.6289629749953747e-03</internalNodes>
          <leafValues>
            5.5929160118103027e-01 -2.1468909084796906e-01</leafValues></_>
        <_>
          <internalNodes>
            0 -1 201 4.8171957023441792e-03</internalNodes>
          <leafValues>
            -3.0449131131172180e-01 3.4475475549697876e-01</leafValues></_>
        <_>
          <internalNodes>
            0 -1 56 1.0714787989854813e-02</internalNodes>
          <leafValues>
            -2.7386310696601868e-01 4.2940497398376465e-01</leafValues></_>
        <_>
          <internalNodes>
            0 -1 288 -2.2313853260129690e-03</internalNodes>
          <leafValues>
            5.1458430290222168e-01 -1.9626006484031677e-01</leafValues></_>
        <_>
          <internalNodes>
            0 -1 264 -1.6532035078853369e-03</internalNodes>
          <leafValues>
            3.6657196283340454e-01 -2.6873713731765747e-01</leafValues></_>
        <_>
          <internalNodes>
            0 -1 259 -7.8044086694717407e-03</internalNodes>
          <leafValues>
            5.8984345197677612e-01 -1.3194032013416290e-01</leafValues></_>
        <_>
          <internalNodes>
            0 -1 239 -3.6840257234871387e-03</internalNodes>
          <leafValues>
            5.0395667552947998e-01 -2.4531944096088409e-01</leafValues></_>
        <_>
          <internalNodes>
            0 -1 29 7.6140174642205238e-03</internalNodes>
          <leafValues>
            -2.0456683635711670e-01 4.4850376248359680e-01</leafValues></_>
        <_>
          <internalNodes>
            0 -1 161 -5.8070216327905655e-03</internalNodes>
          <leafValues>
            4.9063149094581604e-01 -2.3754911124706268e-01</leafValues></_>
        <_>
          <internalNodes>
            0 -1 260 3.3238143660128117e-03</internalNodes>
          <leafValues>
            -2.0134474337100983e-01 4.5953267812728882e-01</leafValues></_></weakClassifiers></_>
    <!-- stage 9 -->
    <_>
      <maxWeakCount>14</maxWeakCount>
      <stageThreshold>-7.3747348785400391e-01</stageThreshold>
      <weakClassifiers>
        <_>
          <internalNodes>
            0 -1 159 -3.0722652445547283e-04</internalNodes>
          <leafValues>
            5.9893757104873657e-01 -6.0212515294551849e-02</leafValues></_>
        <_>
          <internalNodes>
            0 -1 38 2.5655846111476421e-03</internalNodes>
          <leafValues>
            -3.4074899554252625e-01 3.4722894430160522e-01</leafValues></_>
        <_>
          <internalNodes>
            0 -1 71 -1.5875551849603653e-02</internalNodes>
          <leafValues>
            3.4446603059768677e-01 -2.9552242159843445e-01</leafValues></_>
        <_>
          <internalNodes>
            0 -1 242 3.1333968043327332e-02</internalNodes>
          <leafValues>
            -2.4343617260456085e-01 4.8824778199195862e-01</leafValues></_>
        <_>
          <internalNodes>
            0 -1 172 -1.7306085675954819e-02</internalNodes>
          <leafValues>
            4.4599786400794983e-01 -2.2655278444290161e-01</leafValues></_>
        <_>
          <internalNodes>
            0 -1 99 -2.3676069453358650e-02</internalNodes>
          <leafValues>
            -8.3383893966674805e-01 1.4667768776416779e-01</leafValues></_>
        <_>
          <internalNodes>
            0 -1 48 -7.3404023423790932e-03</internalNodes>
          <leafValues>
            6.9754475355148315e-01 -1.4063499867916107e-01</leafValues></_>
        <_>
          <internalNodes>
            0 -1 194 -2.8028946369886398e-02</internalNodes>
          <leafValues>
            5.2404516935348511e-01 -1.8320441246032715e-01</leafValues></_>
        <_>
          <internalNodes>
            0 -1 64 -7.6697384938597679e-03</internalNodes>
          <leafValues>
            3.6634129285812378e-01 -2.6888427138328552e-01</leafValues></_>
        <_>
          <internalNodes>
            0 -1 244 3.9565707556903362e-03</internalNodes>
          <leafValues>
            -2.9507389664649963e-01 3.2778096199035645e-01</leafValues></_>
        <_>
          <internalNodes>
            0 -1 293 -9.6769975498318672e-03</internalNodes>
          <leafValues>
            6.2571519613265991e-01 -1.6075468063354492e-01</leafValues></_>
        <_>
          <internalNodes>
            0 -1 281 -3.4713419154286385e-03</internalNodes>
          <leafValues>
            4.1605499386787415e-01 -2.2070159018039703e-01</leafValues></_>
        <_>
          <internalNodes>
            0 -1 296 -9.7133638337254524e-03</internalNodes>
          <leafValues>
            6.2926959991455078e-01 -1.4155153930187225e-01</leafValues></_>
        <_>
          <internalNodes>
            0 -1 134 -9.5504033379256725e-04</internalNodes>
          <leafValues>
            4.0215072035789490e-01 -2.3800517618656158e-01</leafValues></_></weakClassifiers></_>
    <!-- stage 10 -->
    <_>
      <maxWeakCount>16</maxWeakCount>
      <stageThreshold>-8.2161462306976318e-01</stageThreshold>
      <weakClassifiers>
        <_>
          <internalNodes>
            0 -1 3 1.1261314153671265e-02</internalNodes>
          <leafValues>
            -6.3122920691967010e-02 6.5566712617874146e-01</leafValues></_>
        <_>
          <internalNodes>
            0 -1 190 1.7977233510464430e-03</internalNodes>
          <leafValues>
            2.3989431560039520e-01 -4.2955982685089111e-01</leafValues></_>
        <_>
          <internalNodes>
            0 -1 248 -7.1441130712628365e-03</internalNodes>
          <leafValues>
            7.8707116842269897e-01 -1.1475865542888641e-01</leafValues></_>
        <_>
          <internalNodes>
            0 -1 173 5.4631765931844711e-02</internalNodes>
          <leafValues>
            -1.6645596921443939e-01 6.4995872974395752e-01</leafValues></_>
        <_>
          <internalNodes>
            0 -1 192 -2.2687466815114021e-02</internalNodes>
          <leafValues>
            5.9882044792175293e-01 -1.5927921235561371e-01</leafValues></_>
        <_>
          <internalNodes>
            0 -1 146 -8.5015054792165756e-03</internalNodes>
          <leafValues>
            3.7801966071128845e-01 -2.1937154233455658e-01</leafValues></_>
        <_>
          <internalNodes>
            0 -1 86 -3.8535166531801224e-03</internalNodes>
          <leafValues>
            4.3318763375282288e-01 -2.6548519730567932e-01</leafValues></_>
        <_>
          <internalNodes>
            0 -1 274 -2.7269179001450539e-02</internalNodes>
          <leafValues>
            5.5934691429138184e-01 -1.5562589466571808e-01</leafValues></_>
        <_>
          <internalNodes>
            0 -1 122 -7.2570634074509144e-04</internalNodes>
          <leafValues>
            2.2447699308395386e-01 -3.9454394578933716e-01</leafValues></_>
        <_>
          <internalNodes>
            0 -1 283 7.2376960888504982e-03</internalNodes>
          <leafValues>
            -1.8178918957710266e-01 5.1855546236038208e-01</leafValues></_>
        <_>
          <internalNodes>
            0 -1 108 2.7477492112666368e-03</internalNodes>
          <leafValues>
            -2.2545157372951508e-01 3.6375194787979126e-01</leafValues></_>
        <_>
          <internalNodes>
            0 -1 84 -1.7440594732761383e-02</internalNodes>
          <leafValues>
            -6.9149470329284668e-01 1.2189272046089172e-01</leafValues></_>
        <_>
          <internalNodes>
            0 -1 141 -2.6137247681617737e-02</internalNodes>
          <leafValues>
            5.3553533554077148e-01 -1.9598998129367828e-01</leafValues></_>
        <_>
          <internalNodes>
            0 -1 208 -2.9947177972644567e-03</internalNodes>
          <leafValues>
            -7.6999956369400024e-01 1.7978994548320770e-01</leafValues></_>
        <_>
          <internalNodes>
            0 -1 226 -1.1351231951266527e-03</internalNodes>
          <leafValues>
            -6.9711941480636597e-01 8.5536666214466095e-02</leafValues></_>
        <_>
          <internalNodes>
            0 -1 197 -6.7086042836308479e-03</internalNodes>
          <leafValues>
            -5.0464236736297607e-01 1.5810813009738922e-01</leafValues></_></weakClassifiers></_>
    <!-- stage 11 -->
    <_>
      <maxWeakCount>17</maxWeakCount>
      <stageThreshold>-8.0301141738891602e-01</stageThreshold>
      <weakClassifiers>
        <_>
          <internalNodes>
            0 -1 243 -2.4068332277238369e-03</internalNodes>
          <leafValues>
            8.5000002384185791e-01 7.5806453824043274e-02</leafValues></_>
        <_>
          <internalNodes>
            0 -1 26 8.4258299320936203e-03</internalNodes>
          <leafValues>
            -1.4184297621250153e-01 6.1408829689025879e-01</leafValues></_>
        <_>
          <internalNodes>
            0 -1 90 5.1266804803162813e-04</internalNodes>
          <leafValues>
            -2.6900708675384521e-01 4.0722244977951050e-01</leafValues></_>
        <_>
          <internalNodes>
            0 -1 153 -3.2404080033302307e-02</internalNodes>
          <leafValues>
            5.6858813762664795e-01 -1.6714636981487274e-01</leafValues></_>
        <_>
          <internalNodes>
            0 -1 180 -1.3635188224725425e-05</internalNodes>
          <leafValues>
            3.4986501932144165e-01 -2.9269504547119141e-01</leafValues></_>
        <_>
          <internalNodes>
            0 -1 220 3.1541122589260340e-03</internalNodes>
          <leafValues>
            -1.6804106533527374e-01 5.6369513273239136e-01</leafValues></_>
        <_>
          <internalNodes>
            0 -1 111 -5.7483110576868057e-03</internalNodes>
          <leafValues>
            5.4705184698104858e-01 -1.5026089549064636e-01</leafValues></_>
        <_>
          <internalNodes>
            0 -1 159 -1.3630462344735861e-03</internalNodes>
          <leafValues>
            6.1686134338378906e-01 -1.1904784291982651e-01</leafValues></_>
        <_>
          <internalNodes>
            0 -1 284 3.0243392102420330e-03</internalNodes>
          <leafValues>
            -1.7359764873981476e-01 4.7340497374534607e-01</leafValues></_>
        <_>
          <internalNodes>
            0 -1 73 1.6266175080090761e-03</internalNodes>
          <leafValues>
            -3.9734008908271790e-01 2.1727351844310760e-01</leafValues></_>
        <_>
          <internalNodes>
            0 -1 145 -1.1200463399291039e-02</internalNodes>
          <leafValues>
            -6.5630060434341431e-01 1.3427792489528656e-01</leafValues></_>
        <_>
          <internalNodes>
            0 -1 230 -1.4070540601096582e-05</internalNodes>
          <leafValues>
            2.3809190094470978e-01 -3.2559320330619812e-01</leafValues></_>
        <_>
          <internalNodes>
            0 -1 47 -3.4920542966574430e-03</internalNodes>
          <leafValues>
            4.9787989258766174e-01 -1.4665584266185760e-01</leafValues></_>
        <_>
          <internalNodes>
            0 -1 154 1.1450180783867836e-02</internalNodes>
          <leafValues>
            -1.4555352926254272e-01 5.5714148283004761e-01</leafValues></_>
        <_>
          <internalNodes>
            0 -1 184 1.1577273253351450e-03</internalNodes>
          <leafValues>
            -2.0230439305305481e-01 3.8395011425018311e-01</leafValues></_>
        <_>
          <internalNodes>
            0 -1 215 -4.7846362576819956e-05</internalNodes>
          <leafValues>
            2.7669909596443176e-01 -3.1093400716781616e-01</leafValues></_>
        <_>
          <internalNodes>
            0 -1 37 3.1086732633411884e-04</internalNodes>
          <leafValues>
            2.0442451536655426e-01 -3.9620262384414673e-01</leafValues></_></weakClassifiers></_>
    <!-- stage 12 -->
    <_>
      <maxWeakCount>18</maxWeakCount>
      <stageThreshold>-1.0275177955627441e+00</stageThreshold>
      <weakClassifiers>
        <_>
          <internalNodes>
            0 -1 18 5.7543711736798286e-03</internalNodes>
          <leafValues>
            -9.2838197946548462e-02 5.5555558204650879e-01</leafValues></_>
        <_>
          <internalNodes>
            0 -1 271 -1.7904443666338921e-02</internalNodes>
          <leafValues>
            5.4638910293579102e-01 -1.6407287120819092e-01</leafValues></_>
        <_>
          <internalNodes>
            0 -1 69 -3.1213678419589996e-02</internalNodes>
          <leafValues>
            4.0545937418937683e-01 -2.6250833272933960e-01</leafValues></_>
        <_>
          <internalNodes>
            0 -1 210 5.0642946735024452e-04</internalNodes>
          <leafValues>
            1.3848567008972168e-01 -5.8764195442199707e-01</leafValues></_>
        <_>
          <internalNodes>
            0 -1 204 -5.7411112356930971e-04</internalNodes>
          <leafValues>
            -5.5419826507568359e-01 1.7800617218017578e-01</leafValues></_>
        <_>
          <internalNodes>
            0 -1 15 -7.1782870218157768e-03</internalNodes>
          <leafValues>
            5.1072585582733154e-01 -2.0455364882946014e-01</leafValues></_>
        <_>
          <internalNodes>
            0 -1 102 -2.1289947908371687e-03</internalNodes>
          <leafValues>
            -5.2934372425079346e-01 1.6115544736385345e-01</leafValues></_>
        <_>
          <internalNodes>
            0 -1 266 -4.3001342564821243e-02</internalNodes>
          <leafValues>
            6.3817161321640015e-01 -1.5503878891468048e-01</leafValues></_>
        <_>
          <internalNodes>
            0 -1 289 5.1624383777379990e-03</internalNodes>
          <leafValues>
            -1.2814308702945709e-01 6.0063636302947998e-01</leafValues></_>
        <_>
          <internalNodes>
            0 -1 276 8.7043121457099915e-03</internalNodes>
          <leafValues>
            -1.4914931356906891e-01 5.1043820381164551e-01</leafValues></_>
        <_>
          <internalNodes>
            0 -1 44 3.3772401511669159e-02</internalNodes>
          <leafValues>
            1.6420193016529083e-01 -6.3679051399230957e-01</leafValues></_>
        <_>
          <internalNodes>
            0 -1 5 1.8155133351683617e-02</internalNodes>
          <leafValues>
            -2.8838276863098145e-01 3.0455642938613892e-01</leafValues></_>
        <_>
          <internalNodes>
            0 -1 203 -1.3090834021568298e-02</internalNodes>
          <leafValues>
            6.2338781356811523e-01 -1.5382573008537292e-01</leafValues></_>
        <_>
          <internalNodes>
            0 -1 67 2.0730388350784779e-03</internalNodes>
          <leafValues>
            1.4831495285034180e-01 -6.8114483356475830e-01</leafValues></_>
        <_>
          <internalNodes>
            0 -1 42 6.2120635993778706e-03</internalNodes>
          <leafValues>
            7.1373440325260162e-02 -8.0972135066986084e-01</leafValues></_>
        <_>
          <internalNodes>
            0 -1 96 1.1732893064618111e-02</internalNodes>
          <leafValues>
            -1.7002475261688232e-01 4.5795413851737976e-01</leafValues></_>
        <_>
          <internalNodes>
            0 -1 218 5.3563620895147324e-03</internalNodes>
          <leafValues>
            -1.5175125002861023e-01 5.1699787378311157e-01</leafValues></_>
        <_>
          <internalNodes>
            0 -1 224 -4.6529183164238930e-03</internalNodes>
          <leafValues>
            -6.0671502351760864e-01 1.5105943381786346e-01</leafValues></_></weakClassifiers></_>
    <!-- stage 13 -->
    <_>
      <maxWeakCount>20</maxWeakCount>
      <stageThreshold>-8.7670105695724487e-01</stageThreshold>
      <weakClassifiers>
        <_>
          <internalNodes>
            0 -1 40 3.7066183984279633e-02</internalNodes>
          <leafValues>
            -4.0899794548749924e-03 6.4951765537261963e-01</leafValues></_>
        <_>
          <internalNodes>
            0 -1 158 -7.6292193261906505e-04</internalNodes>
          <leafValues>
            5.0077074766159058e-01 -1.6021810472011566e-01</leafValues></_>
        <_>
          <internalNodes>
            0 -1 27 1.0035810992121696e-02</internalNodes>
          <leafValues>
            -1.7122596502304077e-01 4.4478458166122437e-01</leafValues></_>
        <_>
          <internalNodes>
            0 -1 128 5.1604704931378365e-03</internalNodes>
          <leafValues>
            -2.0790399610996246e-01 5.3091669082641602e-01</leafValues></_>
        <_>
          <internalNodes>
            0 -1 176 8.5620774189010262e-04</internalNodes>
          <leafValues>
            1.6306990385055542e-01 -4.8031401634216309e-01</leafValues></_>
        <_>
          <internalNodes>
            0 -1 252 2.2218190133571625e-03</internalNodes>
          <leafValues>
            -2.1557419002056122e-01 3.7220025062561035e-01</leafValues></_>
        <_>
          <internalNodes>
            0 -1 152 -6.2398806214332581e-02</internalNodes>
          <leafValues>
            4.7833228111267090e-01 -1.8347762525081635e-01</leafValues></_>
        <_>
          <internalNodes>
            0 -1 8 -6.3705341890454292e-03</internalNodes>
          <leafValues>
            4.7733396291732788e-01 -1.5391424298286438e-01</leafValues></_>
        <_>
          <internalNodes>
            0 -1 137 -1.5396613162010908e-03</internalNodes>
          <leafValues>
            -4.9918240308761597e-01 1.5824642777442932e-01</leafValues></_>
        <_>
          <internalNodes>
            0 -1 199 -1.3739867426920682e-05</internalNodes>
          <leafValues>
            2.5012791156768799e-01 -3.0011582374572754e-01</leafValues></_>
        <_>
          <internalNodes>
            0 -1 182 4.0516927838325500e-02</internalNodes>
          <leafValues>
            -1.1441420763731003e-01 7.0451968908309937e-01</leafValues></_>
        <_>
          <internalNodes>
            0 -1 76 3.7998161278665066e-03</internalNodes>
          <leafValues>
            1.8625117838382721e-01 -5.1304060220718384e-01</leafValues></_>
        <_>
          <internalNodes>
            0 -1 179 2.7120162267237902e-03</internalNodes>
          <leafValues>
            1.3273163139820099e-01 -6.4473563432693481e-01</leafValues></_>
        <_>
          <internalNodes>
            0 -1 143 -3.7947500823065639e-04</internalNodes>
          <leafValues>
            3.0936434864997864e-01 -2.5601589679718018e-01</leafValues></_>
        <_>
          <internalNodes>
            0 -1 216 1.0627136565744877e-02</internalNodes>
          <leafValues>
            1.0249824821949005e-01 -7.7066057920455933e-01</leafValues></_>
        <_>
          <internalNodes>
            0 -1 149 3.8036576006561518e-03</internalNodes>
          <leafValues>
            1.1239872872829437e-01 -5.8661001920700073e-01</leafValues></_>
        <_>
          <internalNodes>
            0 -1 91 2.1340497769415379e-03</internalNodes>
          <leafValues>
            -1.9230480492115021e-01 3.7086018919944763e-01</leafValues></_>
        <_>
          <internalNodes>
            0 -1 225 -1.4039726927876472e-02</internalNodes>
          <leafValues>
            7.3370742797851562e-01 -1.1383419483900070e-01</leafValues></_>
        <_>
          <internalNodes>
            0 -1 96 1.3701128773391247e-02</internalNodes>
          <leafValues>
            -1.1678458005189896e-01 5.7863014936447144e-01</leafValues></_>
        <_>
          <internalNodes>
            0 -1 163 -2.4612701963633299e-03</internalNodes>
          <leafValues>
            6.5426176786422729e-01 -1.0518855601549149e-01</leafValues></_></weakClassifiers></_>
    <!-- stage 14 -->
    <_>
      <maxWeakCount>18</maxWeakCount>
      <stageThreshold>-6.5616571903228760e-01</stageThreshold>
      <weakClassifiers>
        <_>
          <internalNodes>
            0 -1 223 2.3218996822834015e-02</internalNodes>
          <leafValues>
            8.3061888813972473e-02 8.0107527971267700e-01</leafValues></_>
        <_>
          <internalNodes>
            0 -1 57 -2.0610217005014420e-02</internalNodes>
          <leafValues>
            3.7607795000076294e-01 -2.2899827361106873e-01</leafValues></_>
        <_>
          <internalNodes>
            0 -1 295 -1.0579135268926620e-02</internalNodes>
          <leafValues>
            6.5129369497299194e-01 -1.3653519749641418e-01</leafValues></_>
        <_>
          <internalNodes>
            0 -1 32 4.9586225301027298e-02</internalNodes>
          <leafValues>
            -2.2910992801189423e-01 3.6071527004241943e-01</leafValues></_>
        <_>
          <internalNodes>
            0 -1 217 3.3336900174617767e-02</internalNodes>
          <leafValues>
            -1.3099713623523712e-01 5.5375683307647705e-01</leafValues></_>
        <_>
          <internalNodes>
            0 -1 175 -9.9266879260540009e-03</internalNodes>
          <leafValues>
            4.9971583485603333e-01 -1.6100580990314484e-01</leafValues></_>
        <_>
          <internalNodes>
            0 -1 251 -1.1806486872956157e-04</internalNodes>
          <leafValues>
            -4.0112617611885071e-01 2.1731363236904144e-01</leafValues></_>
        <_>
          <internalNodes>
            0 -1 12 -1.6795508563518524e-02</internalNodes>
          <leafValues>
            4.9411711096763611e-01 -1.5661068260669708e-01</leafValues></_>
        <_>
          <internalNodes>
            0 -1 98 5.0667960196733475e-02</internalNodes>
          <leafValues>
            -1.2070541083812714e-01 6.0504043102264404e-01</leafValues></_>
        <_>
          <internalNodes>
            0 -1 183 -3.6052383482456207e-02</internalNodes>
          <leafValues>
            -9.6378886699676514e-01 7.2242811322212219e-02</leafValues></_>
        <_>
          <internalNodes>
            0 -1 246 7.8931571915745735e-03</internalNodes>
          <leafValues>
            -1.1763326823711395e-01 7.2825807332992554e-01</leafValues></_>
        <_>
          <internalNodes>
            0 -1 148 1.4291398692876101e-03</internalNodes>
          <leafValues>
            -1.8631653487682343e-01 3.7569838762283325e-01</leafValues></_>
        <_>
          <internalNodes>
            0 -1 119 6.3619869761168957e-03</internalNodes>
          <leafValues>
            1.0670916736125946e-01 -7.2923988103866577e-01</leafValues></_>
        <_>
          <internalNodes>
            0 -1 298 -2.1633227879647166e-04</internalNodes>
          <leafValues>
            -3.9069637656211853e-01 1.7013520002365112e-01</leafValues></_>
        <_>
          <internalNodes>
            0 -1 254 3.5116616636514664e-03</internalNodes>
          <leafValues>
            -2.4751269817352295e-01 3.3005213737487793e-01</leafValues></_>
        <_>
          <internalNodes>
            0 -1 268 -2.5172907044179738e-05</internalNodes>
          <leafValues>
            2.6106649637222290e-01 -3.0358502268791199e-01</leafValues></_>
        <_>
          <internalNodes>
            0 -1 11 1.2056807056069374e-02</internalNodes>
          <leafValues>
            -1.5529537200927734e-01 5.2867972850799561e-01</leafValues></_>
        <_>
          <internalNodes>
            0 -1 256 -1.8199451733380556e-04</internalNodes>
          <leafValues>
            3.1972673535346985e-01 -2.5746989250183105e-01</leafValues></_></weakClassifiers></_>
    <!-- stage 15 -->
    <_>
      <maxWeakCount>19</maxWeakCount>
      <stageThreshold>-7.4842941761016846e-01</stageThreshold>
      <weakClassifiers>
        <_>
          <internalNodes>
            0 -1 198 -2.7966536581516266e-02</internalNodes>
          <leafValues>
            8.4146338701248169e-01 9.7484275698661804e-02</leafValues></_>
        <_>
          <internalNodes>
            0 -1 294 -7.5480313971638680e-03</internalNodes>
          <leafValues>
            5.4801517724990845e-01 -1.1972072720527649e-01</leafValues></_>
        <_>
          <internalNodes>
            0 -1 185 8.8963913731276989e-04</internalNodes>
          <leafValues>
            1.7025375366210938e-01 -5.0080972909927368e-01</leafValues></_>
        <_>
          <internalNodes>
            0 -1 267 -8.0946441739797592e-03</internalNodes>
          <leafValues>
            -7.7653419971466064e-01 9.5261141657829285e-02</leafValues></_>
        <_>
          <internalNodes>
            0 -1 23 -7.6419599354267120e-02</internalNodes>
          <leafValues>
            -7.3014760017395020e-01 8.4990084171295166e-02</leafValues></_>
        <_>
          <internalNodes>
            0 -1 81 -2.9287501238286495e-03</internalNodes>
          <leafValues>
            2.0563472807407379e-01 -3.2219770550727844e-01</leafValues></_>
        <_>
          <internalNodes>
            0 -1 92 5.2674156613647938e-03</internalNodes>
          <leafValues>
            -3.6350744962692261e-01 1.7506973445415497e-01</leafValues></_>
        <_>
          <internalNodes>
            0 -1 120 -1.7367107793688774e-03</internalNodes>
          <leafValues>
            -6.3159406185150146e-01 1.4514230191707611e-01</leafValues></_>
        <_>
          <internalNodes>
            0 -1 229 1.5836986713111401e-03</internalNodes>
          <leafValues>
            -2.8791412711143494e-01 2.7766016125679016e-01</leafValues></_>
        <_>
          <internalNodes>
            0 -1 2 1.3821430504322052e-02</internalNodes>
          <leafValues>
            -2.5629723072052002e-01 3.6960446834564209e-01</leafValues></_>
        <_>
          <internalNodes>
            0 -1 139 5.8354274369776249e-04</internalNodes>
          <leafValues>
            1.9026643037796021e-01 -4.9674674868583679e-01</leafValues></_>
        <_>
          <internalNodes>
            0 -1 258 7.8155490336939692e-04</internalNodes>
          <leafValues>
            1.7456011474132538e-01 -4.1101491451263428e-01</leafValues></_>
        <_>
          <internalNodes>
            0 -1 186 -2.1609871182590723e-03</internalNodes>
          <leafValues>
            -4.7215124964714050e-01 1.5774646401405334e-01</leafValues></_>
        <_>
          <internalNodes>
            0 -1 125 -3.0698585323989391e-03</internalNodes>
          <leafValues>
            3.8060057163238525e-01 -2.0163302123546600e-01</leafValues></_>
        <_>
          <internalNodes>
            0 -1 156 1.3475000858306885e-02</internalNodes>
          <leafValues>
            -1.2189960479736328e-01 5.8342236280441284e-01</leafValues></_>
        <_>
          <internalNodes>
            0 -1 65 7.2290967218577862e-03</internalNodes>
          <leafValues>
            -2.3134782910346985e-01 3.8383182883262634e-01</leafValues></_>
        <_>
          <internalNodes>
            0 -1 228 -3.1164078973233700e-04</internalNodes>
          <leafValues>
            3.7750592827796936e-01 -1.8938773870468140e-01</leafValues></_>
        <_>
          <internalNodes>
            0 -1 164 -1.7667580395936966e-02</internalNodes>
          <leafValues>
            6.1858540773391724e-01 -1.1682564020156860e-01</leafValues></_>
        <_>
          <internalNodes>
            0 -1 36 -4.9721589311957359e-04</internalNodes>
          <leafValues>
            -4.2408716678619385e-01 2.1198944747447968e-01</leafValues></_></weakClassifiers></_>
    <!-- stage 16 -->
    <_>
      <maxWeakCount>19</maxWeakCount>
      <stageThreshold>-8.3753198385238647e-01</stageThreshold>
      <weakClassifiers>
        <_>
          <internalNodes>
            0 -1 66 5.9835724532604218e-03</internalNodes>
          <leafValues>
            -1.1074197245761752e-03 5.7532280683517456e-01</leafValues></_>
        <_>
          <internalNodes>
            0 -1 45 1.0658765211701393e-02</internalNodes>
          <leafValues>
            -1.0591132938861847e-01 5.6171971559524536e-01</leafValues></_>
        <_>
          <internalNodes>
            0 -1 245 -5.4145440459251404e-02</internalNodes>
          <leafValues>
            7.2686219215393066e-01 -8.4436625242233276e-02</leafValues></_>
        <_>
          <internalNodes>
            0 -1 41 -7.3250040411949158e-02</internalNodes>
          <leafValues>
            3.7220907211303711e-01 -3.0872201919555664e-01</leafValues></_>
        <_>
          <internalNodes>
            0 -1 280 -2.4524650070816278e-03</internalNodes>
          <leafValues>
            3.2487559318542480e-01 -2.1180386841297150e-01</leafValues></_>
        <_>
          <internalNodes>
            0 -1 282 -7.7399676665663719e-03</internalNodes>
          <leafValues>
            4.8702737689018250e-01 -2.3925918340682983e-01</leafValues></_>
        <_>
          <internalNodes>
            0 -1 136 1.9248116586823016e-04</internalNodes>
          <leafValues>
            -3.0830651521682739e-01 2.3316828906536102e-01</leafValues></_>
        <_>
          <internalNodes>
            0 -1 54 -2.5090433657169342e-02</internalNodes>
          <leafValues>
            -7.2641843557357788e-01 1.1426083743572235e-01</leafValues></_>
        <_>
          <internalNodes>
            0 -1 53 -5.8021908625960350e-03</internalNodes>
          <leafValues>
            2.9586932063102722e-01 -2.3607718944549561e-01</leafValues></_>
        <_>
          <internalNodes>
            0 -1 269 3.7764741573482752e-03</internalNodes>
          <leafValues>
            -1.7549747228622437e-01 3.9453473687171936e-01</leafValues></_>
        <_>
          <internalNodes>
            0 -1 22 1.0442808270454407e-02</internalNodes>
          <leafValues>
            -1.3061526417732239e-01 4.9635276198387146e-01</leafValues></_>
        <_>
          <internalNodes>
            0 -1 62 3.1861878233030438e-04</internalNodes>
          <leafValues>
            1.9129657745361328e-01 -4.0640953183174133e-01</leafValues></_>
        <_>
          <internalNodes>
            0 -1 62 -2.5675768847577274e-04</internalNodes>
          <leafValues>
            -4.6385085582733154e-01 1.8781253695487976e-01</leafValues></_>
        <_>
          <internalNodes>
            0 -1 61 1.3329155743122101e-02</internalNodes>
          <leafValues>
            -1.8802471458911896e-01 4.3100023269653320e-01</leafValues></_>
        <_>
          <internalNodes>
            0 -1 46 -2.0259536802768707e-02</internalNodes>
          <leafValues>
            3.5553205013275146e-01 -2.0328496396541595e-01</leafValues></_>
        <_>
          <internalNodes>
            0 -1 72 -3.8903694599866867e-02</internalNodes>
          <leafValues>
            6.4466273784637451e-01 -1.1551314592361450e-01</leafValues></_>
        <_>
          <internalNodes>
            0 -1 213 -4.7680661082267761e-03</internalNodes>
          <leafValues>
            -6.8052059412002563e-01 1.1865846812725067e-01</leafValues></_>
        <_>
          <internalNodes>
            0 -1 275 1.7111409397330135e-04</internalNodes>
          <leafValues>
            -2.9924669861793518e-01 2.3606711626052856e-01</leafValues></_>
        <_>
          <internalNodes>
            0 -1 151 -1.0931074619293213e-02</internalNodes>
          <leafValues>
            6.5958905220031738e-01 -9.6885882318019867e-02</leafValues></_></weakClassifiers></_>
    <!-- stage 17 -->
    <_>
      <maxWeakCount>17</maxWeakCount>
      <stageThreshold>-6.5593761205673218e-01</stageThreshold>
      <weakClassifiers>
        <_>
          <internalNodes>
            0 -1 198 -2.5965001434087753e-02</internalNodes>
          <leafValues>
            7.8550726175308228e-01 1.0278884321451187e-01</leafValues></_>
        <_>
          <internalNodes>
            0 -1 68 -1.8324483186006546e-02</internalNodes>
          <leafValues>
            3.2666680216789246e-01 -2.5983235239982605e-01</leafValues></_>
        <_>
          <internalNodes>
            0 -1 178 -3.9867977611720562e-03</internalNodes>
          <leafValues>
            5.6231319904327393e-01 -1.7838622629642487e-01</leafValues></_>
        <_>
          <internalNodes>
            0 -1 6 -3.1967706978321075e-02</internalNodes>
          <leafValues>
            3.8211914896965027e-01 -2.1330098807811737e-01</leafValues></_>
        <_>
          <internalNodes>
            0 -1 88 2.4420395493507385e-02</internalNodes>
          <leafValues>
            1.0201232135295868e-01 -7.9897212982177734e-01</leafValues></_>
        <_>
          <internalNodes>
            0 -1 0 -6.1912031378597021e-04</internalNodes>
          <leafValues>
            -5.8675855398178101e-01 1.3149085640907288e-01</leafValues></_>
        <_>
          <internalNodes>
            0 -1 127 3.5832714289426804e-02</internalNodes>
          <leafValues>
            -8.6009785532951355e-02 8.9015054702758789e-01</leafValues></_>
        <_>
          <internalNodes>
            0 -1 287 8.2317274063825607e-03</internalNodes>
          <leafValues>
            -1.1396460235118866e-01 6.6420996189117432e-01</leafValues></_>
        <_>
          <internalNodes>
            0 -1 35 1.6722870059311390e-03</internalNodes>
          <leafValues>
            1.3929608464241028e-01 -6.5954673290252686e-01</leafValues></_>
        <_>
          <internalNodes>
            0 -1 95 -4.2619202286005020e-03</internalNodes>
          <leafValues>
            2.4076998233795166e-01 -3.1516444683074951e-01</leafValues></_>
        <_>
          <internalNodes>
            0 -1 168 -1.6218500677496195e-03</internalNodes>
          <leafValues>
            -4.4394555687904358e-01 1.6808871924877167e-01</leafValues></_>
        <_>
          <internalNodes>
            0 -1 188 -4.6596322208642960e-03</internalNodes>
          <leafValues>
            4.1496571898460388e-01 -1.7770721018314362e-01</leafValues></_>
        <_>
          <internalNodes>
            0 -1 132 8.6125414818525314e-03</internalNodes>
          <leafValues>
            -1.5044496953487396e-01 5.8418375253677368e-01</leafValues></_>
        <_>
          <internalNodes>
            0 -1 209 3.1814794056117535e-03</internalNodes>
          <leafValues>
            1.3249647617340088e-01 -7.3771929740905762e-01</leafValues></_>
        <_>
          <internalNodes>
            0 -1 51 -5.5160764604806900e-03</internalNodes>
          <leafValues>
            4.4494080543518066e-01 -1.8873651325702667e-01</leafValues></_>
        <_>
          <internalNodes>
            0 -1 121 -3.7279459647834301e-03</internalNodes>
          <leafValues>
            -6.6131150722503662e-01 1.2665103375911713e-01</leafValues></_>
        <_>
          <internalNodes>
            0 -1 202 1.1002924293279648e-03</internalNodes>
          <leafValues>
            -2.1924556791782379e-01 3.3240351080894470e-01</leafValues></_></weakClassifiers></_>
    <!-- stage 18 -->
    <_>
      <maxWeakCount>19</maxWeakCount>
      <stageThreshold>-7.4263840913772583e-01</stageThreshold>
      <weakClassifiers>
        <_>
          <internalNodes>
            0 -1 126 -1.8173560500144958e-02</internalNodes>
          <leafValues>
            9.0361446142196655e-01 1.2953367829322815e-01</leafValues></_>
        <_>
          <internalNodes>
            0 -1 1 5.5609517730772495e-03</internalNodes>
          <leafValues>
            -2.7452823519706726e-01 2.6779580116271973e-01</leafValues></_>
        <_>
          <internalNodes>
            0 -1 80 -1.0460427030920982e-02</internalNodes>
          <leafValues>
            2.0455646514892578e-01 -3.7145289778709412e-01</leafValues></_>
        <_>
          <internalNodes>
            0 -1 250 -3.1631783349439502e-04</internalNodes>
          <leafValues>
            3.2012245059013367e-01 -2.2565166652202606e-01</leafValues></_>
        <_>
          <internalNodes>
            0 -1 140 3.2170273363590240e-02</internalNodes>
          <leafValues>
            9.6471525728702545e-02 -7.5468057394027710e-01</leafValues></_>
        <_>
          <internalNodes>
            0 -1 24 -2.6210430078208447e-03</internalNodes>
          <leafValues>
            3.6414292454719543e-01 -1.8230308592319489e-01</leafValues></_>
        <_>
          <internalNodes>
            0 -1 297 -3.6751716397702694e-03</internalNodes>
          <leafValues>
            5.4186892509460449e-01 -1.3089908659458160e-01</leafValues></_>
        <_>
          <internalNodes>
            0 -1 249 6.2757208943367004e-03</internalNodes>
          <leafValues>
            -2.0416325330734253e-01 3.8087230920791626e-01</leafValues></_>
        <_>
          <internalNodes>
            0 -1 236 -6.8426774814724922e-03</internalNodes>
          <leafValues>
            3.5583263635635376e-01 -1.8059487640857697e-01</leafValues></_>
        <_>
          <internalNodes>
            0 -1 227 1.1171167716383934e-02</internalNodes>
          <leafValues>
            -1.2877680361270905e-01 5.4301530122756958e-01</leafValues></_>
        <_>
          <internalNodes>
            0 -1 43 -6.5692635253071785e-03</internalNodes>
          <leafValues>
            5.3284341096878052e-01 -1.4022612571716309e-01</leafValues></_>
        <_>
          <internalNodes>
            0 -1 278 -5.1197232678532600e-03</internalNodes>
          <leafValues>
            4.3050917983055115e-01 -1.6027508676052094e-01</leafValues></_>
        <_>
          <internalNodes>
            0 -1 100 2.8597954660654068e-02</internalNodes>
          <leafValues>
            -1.9225214421749115e-01 3.6064997315406799e-01</leafValues></_>
        <_>
          <internalNodes>
            0 -1 83 -4.3503180146217346e-02</internalNodes>
          <leafValues>
            -7.0659857988357544e-01 1.0927149653434753e-01</leafValues></_>
        <_>
          <internalNodes>
            0 -1 116 -1.1629885993897915e-03</internalNodes>
          <leafValues>
            3.0152139067649841e-01 -2.3483942449092865e-01</leafValues></_>
        <_>
          <internalNodes>
            0 -1 160 1.4492281479761004e-03</internalNodes>
          <leafValues>
            -1.1311421543359756e-01 6.2044936418533325e-01</leafValues></_>
        <_>
          <internalNodes>
            0 -1 25 -7.9220812767744064e-03</internalNodes>
          <leafValues>
            2.7056667208671570e-01 -2.8723341226577759e-01</leafValues></_>
        <_>
          <internalNodes>
            0 -1 200 -1.1573096708161756e-04</internalNodes>
          <leafValues>
            -3.7564772367477417e-01 2.1607837080955505e-01</leafValues></_>
        <_>
          <internalNodes>
            0 -1 133 3.6312825977802277e-02</internalNodes>
          <leafValues>
            -1.0768488794565201e-01 6.7327964305877686e-01</leafValues></_></weakClassifiers></_>
    <!-- stage 19 -->
    <_>
      <maxWeakCount>20</maxWeakCount>
      <stageThreshold>-7.1023452281951904e-01</stageThreshold>
      <weakClassifiers>
        <_>
          <internalNodes>
            0 -1 171 1.7612675437703729e-03</internalNodes>
          <leafValues>
            4.1987180709838867e-01 -3.5227271914482117e-01</leafValues></_>
        <_>
          <internalNodes>
            0 -1 195 -2.5383654236793518e-01</internalNodes>
          <leafValues>
            7.3116868734359741e-01 -1.0459076613187790e-01</leafValues></_>
        <_>
          <internalNodes>
            0 -1 109 6.9705010391771793e-03</internalNodes>
          <leafValues>
            -1.3040035963058472e-01 4.6847671270370483e-01</leafValues></_>
        <_>
          <internalNodes>
            0 -1 13 1.0163372382521629e-02</internalNodes>
          <leafValues>
            -1.8109197914600372e-01 4.4753384590148926e-01</leafValues></_>
        <_>
          <internalNodes>
            0 -1 237 -7.7327312901616096e-03</internalNodes>
          <leafValues>
            5.2171158790588379e-01 -1.4929276704788208e-01</leafValues></_>
        <_>
          <internalNodes>
            0 -1 286 -8.7506528943777084e-03</internalNodes>
          <leafValues>
            6.0134339332580566e-01 -1.1104133725166321e-01</leafValues></_>
        <_>
          <internalNodes>
            0 -1 261 -2.5578001514077187e-03</internalNodes>
          <leafValues>
            4.7777870297431946e-01 -1.5637588500976562e-01</leafValues></_>
        <_>
          <internalNodes>
            0 -1 292 -1.0019050911068916e-02</internalNodes>
          <leafValues>
            5.2947860956192017e-01 -1.3716597855091095e-01</leafValues></_>
        <_>
          <internalNodes>
            0 -1 59 -1.7880199011415243e-03</internalNodes>
          <leafValues>
            3.0335158109664917e-01 -2.2369311749935150e-01</leafValues></_>
        <_>
          <internalNodes>
            0 -1 58 6.5599270164966583e-02</internalNodes>
          <leafValues>
            -6.4186893403530121e-02 7.2624039649963379e-01</leafValues></_>
        <_>
          <internalNodes>
            0 -1 157 -2.9713150579482317e-03</internalNodes>
          <leafValues>
            -5.6357032060623169e-01 1.4336389303207397e-01</leafValues></_>
        <_>
          <internalNodes>
            0 -1 232 -1.4070540601096582e-05</internalNodes>
          <leafValues>
            2.0890967547893524e-01 -2.9771921038627625e-01</leafValues></_>
        <_>
          <internalNodes>
            0 -1 34 1.7798624467104673e-03</internalNodes>
          <leafValues>
            1.0816353559494019e-01 -6.0349911451339722e-01</leafValues></_>
        <_>
          <internalNodes>
            0 -1 265 8.6036305874586105e-03</internalNodes>
          <leafValues>
            6.6903948783874512e-02 -8.3320516347885132e-01</leafValues></_>
        <_>
          <internalNodes>
            0 -1 257 6.2940651550889015e-03</internalNodes>
          <leafValues>
            -2.2072629630565643e-01 3.1772968173027039e-01</leafValues></_>
        <_>
          <internalNodes>
            0 -1 221 7.5437985360622406e-03</internalNodes>
          <leafValues>
            -1.8406502902507782e-01 3.8278955221176147e-01</leafValues></_>
        <_>
          <internalNodes>
            0 -1 212 -8.4914304316043854e-03</internalNodes>
          <leafValues>
            3.0489316582679749e-01 -2.1222499012947083e-01</leafValues></_>
        <_>
          <internalNodes>
            0 -1 144 -1.6150911105796695e-03</internalNodes>
          <leafValues>
            2.8383475542068481e-01 -2.3623298108577728e-01</leafValues></_>
        <_>
          <internalNodes>
            0 -1 55 7.9873634967952967e-04</internalNodes>
          <leafValues>
            -3.0098065733909607e-01 2.3786361515522003e-01</leafValues></_>
        <_>
          <internalNodes>
            0 -1 31 4.1220299899578094e-03</internalNodes>
          <leafValues>
            1.2033542990684509e-01 -5.8825844526290894e-01</leafValues></_></weakClassifiers></_></stages>
  <features>
    <_>
      <rects>
        <_>
          0 0 2 2 -1.</_>
        <_>
          0 0 1 1 2.</_>
        <_>
          1 1 1 1 2.</_></rects>
      <tilted>0</tilted></_>
    <_>
      <rects>
        <_>
          0 0 2 24 -1.</_>
        <_>
          1 0 1 24 2.</_></rects>
      <tilted>0</tilted></_>
    <_>
      <rects>
        <_>
          0 0 18 2 -1.</_>
        <_>
          0 1 18 1 2.</_></rects>
      <tilted>0</tilted></_>
    <_>
      <rects>
        <_>
          0 1 2 16 -1.</_>
        <_>
          1 1 1 16 2.</_></rects>
      <tilted>0</tilted></_>
    <_>
      <rects>
        <_>
          0 1 8 14 -1.</_>
        <_>
          0 1 4 7 2.</_>
        <_>
          4 8 4 7 2.</_></rects>
      <tilted>0</tilted></_>
    <_>
      <rects>
        <_>
          0 1 10 3 -1.</_>
        <_>
          5 1 5 3 2.</_></rects>
      <tilted>0</tilted></_>
    <_>
      <rects>
        <_>
          0 1 10 10 -1.</_>
        <_>
          0 1 5 5 2.</_>
        <_>
          5 6 5 5 2.</_></rects>
      <tilted>0</tilted></_>
    <_>
      <rects>
        <_>
          0 2 24 1 -1.</_>
        <_>
          8 2 8 1 3.</_></rects>
      <tilted>0</tilted></_>
    <_>
      <rects>
        <_>
          0 3 3 11 -1.</_>
        <_>
          1 3 1 11 3.</_></rects>
      <tilted>0</tilted></_>
    <_>
      <rects>
        <_>
          0 3 12 2 -1.</_>
        <_>
          4 3 4 2 3.</_></rects>
      <tilted>0</tilted></_>
    <_>
      <rects>
        <_>
          0 4 3 9 -1.</_>
        <_>
          1 4 1 9 3.</_></rects>
      <tilted>0</tilted></_>
    <_>
      <rects>
        <_>
          0 4 3 10 -1.</_>
        <_>
          1 4 1 10 3.</_></rects>
      <tilted>0</tilted></_>
    <_>
      <rects>
        <_>
          0 4 6 11 -1.</_>
        <_>
          2 4 2 11 3.</_></rects>
      <tilted>0</tilted></_>
    <_>
      <rects>
        <_>
          0 5 2 12 -1.</_>
        <_>
          0 5 1 6 2.</_>
        <_>
          1 11 1 6 2.</_></rects>
      <tilted>0</tilted></_>
    <_>
      <rects>
        <_>
          0 5 2 15 -1.</_>
        <_>
          1 5 1 15 2.</_></rects>
      <tilted>0</tilted></_>
    <_>
      <rects>
        <_>
          0 6 3 8 -1.</_>
        <_>
          1 6 1 8 3.</_></rects>
      <tilted>0</tilted></_>
    <_>
      <rects>
        <_>
          0 6 2 13 -1.</_>
        <_>
          1 6 1 13 2.</_></rects>
      <tilted>0</tilted></_>
    <_>
      <rects>
        <_>
          0 6 15 9 -1.</_>
        <_>
          0 9 15 3 3.</_></rects>
      <tilted>0</tilted></_>
    <_>
      <rects>
        <_>
          0 7 2 9 -1.</_>
        <_>
          1 7 1 9 2.</_></rects>
      <tilted>0</tilted></_>
    <_>
      <rects>
        <_>
          0 7 2 11 -1.</_>
        <_>
          1 7 1 11 2.</_></rects>
      <tilted>0</tilted></_>
    <_>
      <rects>
        <_>
          0 7 2 12 -1.</_>
        <_>
          1 7 1 12 2.</_></rects>
      <tilted>0</tilted></_>
    <_>
      <rects>
        <_>
          0 7 4 17 -1.</_>
        <_>
          2 7 2 17 2.</_></rects>
      <tilted>0</tilted></_>
    <_>
      <rects>
        <_>
          0 9 3 5 -1.</_>
        <_>
          1 9 1 5 3.</_></rects>
      <tilted>0</tilted></_>
    <_>
      <rects>
        <_>
          0 9 12 8 -1.</_>
        <_>
          4 9 4 8 3.</_></rects>
      <tilted>0</tilted></_>
    <_>
      <rects>
        <_>
          0 10 3 3 -1.</_>
        <_>
          1 10 1 3 3.</_></rects>
      <tilted>0</tilted></_>
    <_>
      <rects>
        <_>
          0 11 18 7 -1.</_>
        <_>
          9 11 9 7 2.</_></rects>
      <tilted>0</tilted></_>
    <_>
      <rects>
        <_>
          0 13 3 4 -1.</_>
        <_>
          1 13 1 4 3.</_></rects>
      <tilted>0</tilted></_>
    <_>
      <rects>
        <_>
          0 13 3 6 -1.</_>
        <_>
          1 13 1 6 3.</_></rects>
      <tilted>0</tilted></_>
    <_>
      <rects>
        <_>
          0 14 2 3 -1.</_>
        <_>
          1 14 1 3 2.</_></rects>
      <tilted>0</tilted></_>
    <_>
      <rects>
        <_>
          0 14 4 4 -1.</_>
        <_>
          2 14 2 4 2.</_></rects>
      <tilted>0</tilted></_>
    <_>
      <rects>
        <_>
          0 15 3 4 -1.</_>
        <_>
          1 15 1 4 3.</_></rects>
      <tilted>0</tilted></_>
    <_>
      <rects>
        <_>
          0 15 4 2 -1.</_>
        <_>
          0 16 4 1 2.</_></rects>
      <tilted>0</tilted></_>
    <_>
      <rects>
        <_>
          0 16 24 8 -1.</_>
        <_>
          8 16 8 8 3.</_></rects>
      <tilted>0</tilted></_>
    <_>
      <rects>
        <_>
          0 17 10 6 -1.</_>
        <_>
          0 17 5 3 2.</_>
        <_>
          5 20 5 3 2.</_></rects>
      <tilted>0</tilted></_>
    <_>
      <rects>
        <_>
          0 19 2 4 -1.</_>
        <_>
          0 19 1 2 2.</_>
        <_>
          1 21 1 2 2.</_></rects>
      <tilted>0</tilted></_>
    <_>
      <rects>
        <_>
          0 21 4 2 -1.</_>
        <_>
          0 21 2 1 2.</_>
        <_>
          2 22 2 1 2.</_></rects>
      <tilted>0</tilted></_>
    <_>
      <rects>
        <_>
          0 23 4 1 -1.</_>
        <_>
          2 23 2 1 2.</_></rects>
      <tilted>0</tilted></_>
    <_>
      <rects>
        <_>
          1 0 2 1 -1.</_>
        <_>
          2 0 1 1 2.</_></rects>
      <tilted>0</tilted></_>
    <_>
      <rects>
        <_>
          1 0 4 6 -1.</_>
        <_>
          3 0 2 6 2.</_></rects>
      <tilted>0</tilted></_>
    <_>
      <rects>
        <_>
          1 0 6 24 -1.</_>
        <_>
          1 0 3 12 2.</_>
        <_>
          4 12 3 12 2.</_></rects>
      <tilted>0</tilted></_>
    <_>
      <rects>
        <_>
          1 0 17 4 -1.</_>
        <_>
          1 2 17 2 2.</_></rects>
      <tilted>0</tilted></_>
    <_>
      <rects>
        <_>
          1 1 16 8 -1.</_>
        <_>
          1 5 16 4 2.</_></rects>
      <tilted>0</tilted></_>
    <_>
      <rects>
        <_>
          1 5 4 3 -1.</_>
        <_>
          1 6 4 1 3.</_></rects>
      <tilted>0</tilted></_>
    <_>
      <rects>
        <_>
          1 8 1 12 -1.</_>
        <_>
          1 14 1 6 2.</_></rects>
      <tilted>0</tilted></_>
    <_>
      <rects>
        <_>
          1 8 15 6 -1.</_>
        <_>
          6 8 5 6 3.</_></rects>
      <tilted>0</tilted></_>
    <_>
      <rects>
        <_>
          1 9 3 5 -1.</_>
        <_>
          2 9 1 5 3.</_></rects>
      <tilted>0</tilted></_>
    <_>
      <rects>
        <_>
          1 9 18 6 -1.</_>
        <_>
          10 9 9 6 2.</_></rects>
      <tilted>0</tilted></_>
    <_>
      <rects>
        <_>
          1 10 2 6 -1.</_>
        <_>
          1 10 1 3 2.</_>
        <_>
          2 13 1 3 2.</_></rects>
      <tilted>0</tilted></_>
    <_>
      <rects>
        <_>
          1 10 2 8 -1.</_>
        <_>
          1 10 1 4 2.</_>
        <_>
          2 14 1 4 2.</_></rects>
      <tilted>0</tilted></_>
    <_>
      <rects>
        <_>
          1 11 3 3 -1.</_>
        <_>
          2 11 1 3 3.</_></rects>
      <tilted>0</tilted></_>
    <_>
      <rects>
        <_>
          1 11 2 6 -1.</_>
        <_>
          1 11 1 3 2.</_>
        <_>
          2 14 1 3 2.</_></rects>
      <tilted>0</tilted></_>
    <_>
      <rects>
        <_>
          1 11 2 12 -1.</_>
        <_>
          1 11 1 6 2.</_>
        <_>
          2 17 1 6 2.</_></rects>
      <tilted>0</tilted></_>
    <_>
      <rects>
        <_>
          1 12 4 7 -1.</_>
        <_>
          3 12 2 7 2.</_></rects>
      <tilted>0</tilted></_>
    <_>
      <rects>
        <_>
          1 13 6 6 -1.</_>
        <_>
          1 13 3 3 2.</_>
        <_>
          4 16 3 3 2.</_></rects>
      <tilted>0</tilted></_>
    <_>
      <rects>
        <_>
          1 13 11 6 -1.</_>
        <_>
          1 16 11 3 2.</_></rects>
      <tilted>0</tilted></_>
    <_>
      <rects>
        <_>
          1 14 3 4 -1.</_>
        <_>
          1 16 3 2 2.</_></rects>
      <tilted>0</tilted></_>
    <_>
      <rects>
        <_>
          1 15 4 8 -1.</_>
        <_>
          1 15 2 4 2.</_>
        <_>
          3 19 2 4 2.</_></rects>
      <tilted>0</tilted></_>
    <_>
      <rects>
        <_>
          1 16 15 3 -1.</_>
        <_>
          6 16 5 3 3.</_></rects>
      <tilted>0</tilted></_>
    <_>
      <rects>
        <_>
          1 17 9 7 -1.</_>
        <_>
          4 17 3 7 3.</_></rects>
      <tilted>0</tilted></_>
    <_>
      <rects>
        <_>
          1 19 9 5 -1.</_>
        <_>
          4 19 3 5 3.</_></rects>
      <tilted>0</tilted></_>
    <_>
      <rects>
        <_>
          1 19 10 2 -1.</_>
        <_>
          6 19 5 2 2.</_></rects>
      <tilted>0</tilted></_>
    <_>
      <rects>
        <_>
          1 20 10 2 -1.</_>
        <_>
          6 20 5 2 2.</_></rects>
      <tilted>0</tilted></_>
    <_>
      <rects>
        <_>
          1 23 2 1 -1.</_>
        <_>
          2 23 1 1 2.</_></rects>
      <tilted>0</tilted></_>
    <_>
      <rects>
        <_>
          2 1 8 6 -1.</_>
        <_>
          2 1 4 3 2.</_>
        <_>
          6 4 4 3 2.</_></rects>
      <tilted>0</tilted></_>
    <_>
      <rects>
        <_>
          2 2 8 6 -1.</_>
        <_>
          2 2 4 3 2.</_>
        <_>
          6 5 4 3 2.</_></rects>
      <tilted>0</tilted></_>
    <_>
      <rects>
        <_>
          2 2 12 1 -1.</_>
        <_>
          8 2 6 1 2.</_></rects>
      <tilted>0</tilted></_>
    <_>
      <rects>
        <_>
          2 2 22 2 -1.</_>
        <_>
          2 3 22 1 2.</_></rects>
      <tilted>0</tilted></_>
    <_>
      <rects>
        <_>
          2 6 3 2 -1.</_>
        <_>
          2 7 3 1 2.</_></rects>
      <tilted>0</tilted></_>
    <_>
      <rects>
        <_>
          2 6 10 14 -1.</_>
        <_>
          2 6 5 7 2.</_>
        <_>
          7 13 5 7 2.</_></rects>
      <tilted>0</tilted></_>
    <_>
      <rects>
        <_>
          2 9 8 13 -1.</_>
        <_>
          6 9 4 13 2.</_></rects>
      <tilted>0</tilted></_>
    <_>
      <rects>
        <_>
          2 10 12 4 -1.</_>
        <_>
          6 10 4 4 3.</_></rects>
      <tilted>0</tilted></_>
    <_>
      <rects>
        <_>
          2 14 8 6 -1.</_>
        <_>
          6 14 4 6 2.</_></rects>
      <tilted>0</tilted></_>
    <_>
      <rects>
        <_>
          2 15 10 8 -1.</_>
        <_>
          2 15 5 4 2.</_>
        <_>
          7 19 5 4 2.</_></rects>
      <tilted>0</tilted></_>
    <_>
      <rects>
        <_>
          2 15 20 9 -1.</_>
        <_>
          2 18 20 3 3.</_></rects>
      <tilted>0</tilted></_>
    <_>
      <rects>
        <_>
          2 16 4 3 -1.</_>
        <_>
          4 16 2 3 2.</_></rects>
      <tilted>0</tilted></_>
    <_>
      <rects>
        <_>
          2 16 4 8 -1.</_>
        <_>
          2 16 2 4 2.</_>
        <_>
          4 20 2 4 2.</_></rects>
      <tilted>0</tilted></_>
    <_>
      <rects>
        <_>
          2 16 16 1 -1.</_>
        <_>
          10 16 8 1 2.</_></rects>
      <tilted>0</tilted></_>
    <_>
      <rects>
        <_>
          2 20 19 4 -1.</_>
        <_>
          2 22 19 2 2.</_></rects>
      <tilted>0</tilted></_>
    <_>
      <rects>
        <_>
          2 22 22 1 -1.</_>
        <_>
          13 22 11 1 2.</_></rects>
      <tilted>0</tilted></_>
    <_>
      <rects>
        <_>
          3 0 15 2 -1.</_>
        <_>
          3 1 15 1 2.</_></rects>
      <tilted>0</tilted></_>
    <_>
      <rects>
        <_>
          3 3 2 18 -1.</_>
        <_>
          3 9 2 6 3.</_></rects>
      <tilted>0</tilted></_>
    <_>
      <rects>
        <_>
          3 6 4 14 -1.</_>
        <_>
          5 6 2 14 2.</_></rects>
      <tilted>0</tilted></_>
    <_>
      <rects>
        <_>
          3 6 5 14 -1.</_>
        <_>
          3 13 5 7 2.</_></rects>
      <tilted>0</tilted></_>
    <_>
      <rects>
        <_>
          3 8 9 10 -1.</_>
        <_>
          6 8 3 10 3.</_></rects>
      <tilted>0</tilted></_>
    <_>
      <rects>
        <_>
          3 10 12 3 -1.</_>
        <_>
          7 10 4 3 3.</_></rects>
      <tilted>0</tilted></_>
    <_>
      <rects>
        <_>
          3 12 7 9 -1.</_>
        <_>
          3 15 7 3 3.</_></rects>
      <tilted>0</tilted></_>
    <_>
      <rects>
        <_>
          3 15 2 4 -1.</_>
        <_>
          4 15 1 4 2.</_></rects>
      <tilted>0</tilted></_>
    <_>
      <rects>
        <_>
          3 15 9 6 -1.</_>
        <_>
          3 18 9 3 2.</_></rects>
      <tilted>0</tilted></_>
    <_>
      <rects>
        <_>
          3 15 20 6 -1.</_>
        <_>
          3 15 10 3 2.</_>
        <_>
          13 18 10 3 2.</_></rects>
      <tilted>0</tilted></_>
    <_>
      <rects>
        <_>
          3 16 6 6 -1.</_>
        <_>
          5 16 2 6 3.</_></rects>
      <tilted>0</tilted></_>
    <_>
      <rects>
        <_>
          3 17 2 2 -1.</_>
        <_>
          3 17 1 1 2.</_>
        <_>
          4 18 1 1 2.</_></rects>
      <tilted>0</tilted></_>
    <_>
      <rects>
        <_>
          3 17 2 4 -1.</_>
        <_>
          3 17 1 2 2.</_>
        <_>
          4 19 1 2 2.</_></rects>
      <tilted>0</tilted></_>
    <_>
      <rects>
        <_>
          3 17 11 6 -1.</_>
        <_>
          3 19 11 2 3.</_></rects>
      <tilted>0</tilted></_>
    <_>
      <rects>
        <_>
          3 18 14 3 -1.</_>
        <_>
          10 18 7 3 2.</_></rects>
      <tilted>0</tilted></_>
    <_>
      <rects>
        <_>
          3 18 18 3 -1.</_>
        <_>
          12 18 9 3 2.</_></rects>
      <tilted>0</tilted></_>
    <_>
      <rects>
        <_>
          3 22 18 2 -1.</_>
        <_>
          3 23 18 1 2.</_></rects>
      <tilted>0</tilted></_>
    <_>
      <rects>
        <_>
          4 0 6 3 -1.</_>
        <_>
          4 1 6 1 3.</_></rects>
      <tilted>0</tilted></_>
    <_>
      <rects>
        <_>
          4 1 8 2 -1.</_>
        <_>
          4 1 4 1 2.</_>
        <_>
          8 2 4 1 2.</_></rects>
      <tilted>0</tilted></_>
    <_>
      <rects>
        <_>
          4 1 9 9 -1.</_>
        <_>
          4 4 9 3 3.</_></rects>
      <tilted>0</tilted></_>
    <_>
      <rects>
        <_>
          4 3 4 16 -1.</_>
        <_>
          6 3 2 16 2.</_></rects>
      <tilted>0</tilted></_>
    <_>
      <rects>
        <_>
          4 3 14 8 -1.</_>
        <_>
          4 3 7 4 2.</_>
        <_>
          11 7 7 4 2.</_></rects>
      <tilted>0</tilted></_>
    <_>
      <rects>
        <_>
          4 4 8 4 -1.</_>
        <_>
          4 4 4 2 2.</_>
        <_>
          8 6 4 2 2.</_></rects>
      <tilted>0</tilted></_>
    <_>
      <rects>
        <_>
          4 9 2 5 -1.</_>
        <_>
          5 9 1 5 2.</_></rects>
      <tilted>0</tilted></_>
    <_>
      <rects>
        <_>
          4 11 7 12 -1.</_>
        <_>
          4 17 7 6 2.</_></rects>
      <tilted>0</tilted></_>
    <_>
      <rects>
        <_>
          4 13 14 10 -1.</_>
        <_>
          4 13 7 5 2.</_>
        <_>
          11 18 7 5 2.</_></rects>
      <tilted>0</tilted></_>
    <_>
      <rects>
        <_>
          4 14 4 6 -1.</_>
        <_>
          4 14 2 3 2.</_>
        <_>
          6 17 2 3 2.</_></rects>
      <tilted>0</tilted></_>
    <_>
      <rects>
        <_>
          4 15 1 8 -1.</_>
        <_>
          4 19 1 4 2.</_></rects>
      <tilted>0</tilted></_>
    <_>
      <rects>
        <_>
          4 19 14 2 -1.</_>
        <_>
          4 20 14 1 2.</_></rects>
      <tilted>0</tilted></_>
    <_>
      <rects>
        <_>
          4 21 8 3 -1.</_>
        <_>
          4 22 8 1 3.</_></rects>
      <tilted>0</tilted></_>
    <_>
      <rects>
        <_>
          4 22 16 2 -1.</_>
        <_>
          4 22 8 1 2.</_>
        <_>
          12 23 8 1 2.</_></rects>
      <tilted>0</tilted></_>
    <_>
      <rects>
        <_>
          4 22 12 2 -1.</_>
        <_>
          4 23 12 1 2.</_></rects>
      <tilted>0</tilted></_>
    <_>
      <rects>
        <_>
          4 23 6 1 -1.</_>
        <_>
          7 23 3 1 2.</_></rects>
      <tilted>0</tilted></_>
    <_>
      <rects>
        <_>
          5 0 1 18 -1.</_>
        <_>
          5 6 1 6 3.</_></rects>
      <tilted>0</tilted></_>
    <_>
      <rects>
        <_>
          5 0 6 1 -1.</_>
        <_>
          7 0 2 1 3.</_></rects>
      <tilted>0</tilted></_>
    <_>
      <rects>
        <_>
          5 0 13 2 -1.</_>
        <_>
          5 1 13 1 2.</_></rects>
      <tilted>0</tilted></_>
    <_>
      <rects>
        <_>
          5 0 14 2 -1.</_>
        <_>
          5 1 14 1 2.</_></rects>
      <tilted>0</tilted></_>
    <_>
      <rects>
        <_>
          5 6 3 13 -1.</_>
        <_>
          6 6 1 13 3.</_></rects>
      <tilted>0</tilted></_>
    <_>
      <rects>
        <_>
          5 8 2 2 -1.</_>
        <_>
          6 8 1 2 2.</_></rects>
      <tilted>0</tilted></_>
    <_>
      <rects>
        <_>
          5 12 17 6 -1.</_>
        <_>
          5 15 17 3 2.</_></rects>
      <tilted>0</tilted></_>
    <_>
      <rects>
        <_>
          5 13 9 1 -1.</_>
        <_>
          8 13 3 1 3.</_></rects>
      <tilted>0</tilted></_>
    <_>
      <rects>
        <_>
          5 14 2 3 -1.</_>
        <_>
          6 14 1 3 2.</_></rects>
      <tilted>0</tilted></_>
    <_>
      <rects>
        <_>
          5 17 6 1 -1.</_>
        <_>
          8 17 3 1 2.</_></rects>
      <tilted>0</tilted></_>
    <_>
      <rects>
        <_>
          6 1 2 12 -1.</_>
        <_>
          6 7 2 6 2.</_></rects>
      <tilted>0</tilted></_>
    <_>
      <rects>
        <_>
          6 1 5 4 -1.</_>
        <_>
          6 3 5 2 2.</_></rects>
      <tilted>0</tilted></_>
    <_>
      <rects>
        <_>
          6 1 8 8 -1.</_>
        <_>
          6 5 8 4 2.</_></rects>
      <tilted>0</tilted></_>
    <_>
      <rects>
        <_>
          6 3 4 3 -1.</_>
        <_>
          8 3 2 3 2.</_></rects>
      <tilted>0</tilted></_>
    <_>
      <rects>
        <_>
          6 11 6 4 -1.</_>
        <_>
          6 11 3 2 2.</_>
        <_>
          9 13 3 2 2.</_></rects>
      <tilted>0</tilted></_>
    <_>
      <rects>
        <_>
          6 11 9 3 -1.</_>
        <_>
          9 11 3 3 3.</_></rects>
      <tilted>0</tilted></_>
    <_>
      <rects>
        <_>
          6 21 3 3 -1.</_>
        <_>
          6 22 3 1 3.</_></rects>
      <tilted>0</tilted></_>
    <_>
      <rects>
        <_>
          7 0 9 4 -1.</_>
        <_>
          7 2 9 2 2.</_></rects>
      <tilted>0</tilted></_>
    <_>
      <rects>
        <_>
          7 0 12 2 -1.</_>
        <_>
          7 1 12 1 2.</_></rects>
      <tilted>0</tilted></_>
    <_>
      <rects>
        <_>
          7 1 3 10 -1.</_>
        <_>
          8 1 1 10 3.</_></rects>
      <tilted>0</tilted></_>
    <_>
      <rects>
        <_>
          7 1 10 1 -1.</_>
        <_>
          12 1 5 1 2.</_></rects>
      <tilted>0</tilted></_>
    <_>
      <rects>
        <_>
          7 1 12 4 -1.</_>
        <_>
          7 1 6 2 2.</_>
        <_>
          13 3 6 2 2.</_></rects>
      <tilted>0</tilted></_>
    <_>
      <rects>
        <_>
          7 2 4 2 -1.</_>
        <_>
          7 2 2 1 2.</_>
        <_>
          9 3 2 1 2.</_></rects>
      <tilted>0</tilted></_>
    <_>
      <rects>
        <_>
          7 2 7 4 -1.</_>
        <_>
          7 4 7 2 2.</_></rects>
      <tilted>0</tilted></_>
    <_>
      <rects>
        <_>
          7 3 2 6 -1.</_>
        <_>
          7 3 1 3 2.</_>
        <_>
          8 6 1 3 2.</_></rects>
      <tilted>0</tilted></_>
    <_>
      <rects>
        <_>
          7 6 6 1 -1.</_>
        <_>
          10 6 3 1 2.</_></rects>
      <tilted>0</tilted></_>
    <_>
      <rects>
        <_>
          7 6 16 18 -1.</_>
        <_>
          7 6 8 9 2.</_>
        <_>
          15 15 8 9 2.</_></rects>
      <tilted>0</tilted></_>
    <_>
      <rects>
        <_>
          7 9 3 2 -1.</_>
        <_>
          7 10 3 1 2.</_></rects>
      <tilted>0</tilted></_>
    <_>
      <rects>
        <_>
          7 11 8 8 -1.</_>
        <_>
          7 15 8 4 2.</_></rects>
      <tilted>0</tilted></_>
    <_>
      <rects>
        <_>
          7 12 6 10 -1.</_>
        <_>
          7 12 3 5 2.</_>
        <_>
          10 17 3 5 2.</_></rects>
      <tilted>0</tilted></_>
    <_>
      <rects>
        <_>
          7 14 9 1 -1.</_>
        <_>
          10 14 3 1 3.</_></rects>
      <tilted>0</tilted></_>
    <_>
      <rects>
        <_>
          7 15 2 2 -1.</_>
        <_>
          7 15 1 1 2.</_>
        <_>
          8 16 1 1 2.</_></rects>
      <tilted>0</tilted></_>
    <_>
      <rects>
        <_>
          7 15 5 3 -1.</_>
        <_>
          7 16 5 1 3.</_></rects>
      <tilted>0</tilted></_>
    <_>
      <rects>
        <_>
          7 18 11 4 -1.</_>
        <_>
          7 20 11 2 2.</_></rects>
      <tilted>0</tilted></_>
    <_>
      <rects>
        <_>
          7 20 5 4 -1.</_>
        <_>
          7 22 5 2 2.</_></rects>
      <tilted>0</tilted></_>
    <_>
      <rects>
        <_>
          7 21 6 2 -1.</_>
        <_>
          7 21 3 1 2.</_>
        <_>
          10 22 3 1 2.</_></rects>
      <tilted>0</tilted></_>
    <_>
      <rects>
        <_>
          8 0 1 3 -1.</_>
        <_>
          8 1 1 1 3.</_></rects>
      <tilted>0</tilted></_>
    <_>
      <rects>
        <_>
          8 0 9 1 -1.</_>
        <_>
          11 0 3 1 3.</_></rects>
      <tilted>0</tilted></_>
    <_>
      <rects>
        <_>
          8 0 10 4 -1.</_>
        <_>
          8 2 10 2 2.</_></rects>
      <tilted>0</tilted></_>
    <_>
      <rects>
        <_>
          8 1 8 1 -1.</_>
        <_>
          12 1 4 1 2.</_></rects>
      <tilted>0</tilted></_>
    <_>
      <rects>
        <_>
          8 1 9 6 -1.</_>
        <_>
          8 4 9 3 2.</_></rects>
      <tilted>0</tilted></_>
    <_>
      <rects>
        <_>
          8 2 4 6 -1.</_>
        <_>
          8 5 4 3 2.</_></rects>
      <tilted>0</tilted></_>
    <_>
      <rects>
        <_>
          8 2 7 3 -1.</_>
        <_>
          8 3 7 1 3.</_></rects>
      <tilted>0</tilted></_>
    <_>
      <rects>
        <_>
          8 6 8 1 -1.</_>
        <_>
          12 6 4 1 2.</_></rects>
      <tilted>0</tilted></_>
    <_>
      <rects>
        <_>
          8 10 6 3 -1.</_>
        <_>
          10 10 2 3 3.</_></rects>
      <tilted>0</tilted></_>
    <_>
      <rects>
        <_>
          8 10 4 4 -1.</_>
        <_>
          8 12 4 2 2.</_></rects>
      <tilted>0</tilted></_>
    <_>
      <rects>
        <_>
          8 12 2 2 -1.</_>
        <_>
          8 12 1 1 2.</_>
        <_>
          9 13 1 1 2.</_></rects>
      <tilted>0</tilted></_>
    <_>
      <rects>
        <_>
          8 13 2 2 -1.</_>
        <_>
          8 13 1 1 2.</_>
        <_>
          9 14 1 1 2.</_></rects>
      <tilted>0</tilted></_>
    <_>
      <rects>
        <_>
          8 14 2 1 -1.</_>
        <_>
          9 14 1 1 2.</_></rects>
      <tilted>0</tilted></_>
    <_>
      <rects>
        <_>
          8 14 4 6 -1.</_>
        <_>
          8 14 2 3 2.</_>
        <_>
          10 17 2 3 2.</_></rects>
      <tilted>0</tilted></_>
    <_>
      <rects>
        <_>
          8 14 8 6 -1.</_>
        <_>
          8 14 4 3 2.</_>
        <_>
          12 17 4 3 2.</_></rects>
      <tilted>0</tilted></_>
    <_>
      <rects>
        <_>
          8 19 3 1 -1.</_>
        <_>
          9 19 1 1 3.</_></rects>
      <tilted>0</tilted></_>
    <_>
      <rects>
        <_>
          8 19 9 2 -1.</_>
        <_>
          11 19 3 2 3.</_></rects>
      <tilted>0</tilted></_>
    <_>
      <rects>
        <_>
          8 20 4 4 -1.</_>
        <_>
          8 22 4 2 2.</_></rects>
      <tilted>0</tilted></_>
    <_>
      <rects>
        <_>
          8 22 14 2 -1.</_>
        <_>
          8 23 14 1 2.</_></rects>
      <tilted>0</tilted></_>
    <_>
      <rects>
        <_>
          8 23 4 1 -1.</_>
        <_>
          10 23 2 1 2.</_></rects>
      <tilted>0</tilted></_>
    <_>
      <rects>
        <_>
          9 0 6 1 -1.</_>
        <_>
          11 0 2 1 3.</_></rects>
      <tilted>0</tilted></_>
    <_>
      <rects>
        <_>
          9 1 3 3 -1.</_>
        <_>
          10 1 1 3 3.</_></rects>
      <tilted>0</tilted></_>
    <_>
      <rects>
        <_>
          9 1 2 4 -1.</_>
        <_>
          9 3 2 2 2.</_></rects>
      <tilted>0</tilted></_>
    <_>
      <rects>
        <_>
          9 1 6 2 -1.</_>
        <_>
          11 1 2 2 3.</_></rects>
      <tilted>0</tilted></_>
    <_>
      <rects>
        <_>
          9 1 2 10 -1.</_>
        <_>
          9 6 2 5 2.</_></rects>
      <tilted>0</tilted></_>
    <_>
      <rects>
        <_>
          9 1 7 10 -1.</_>
        <_>
          9 6 7 5 2.</_></rects>
      <tilted>0</tilted></_>
    <_>
      <rects>
        <_>
          9 2 5 4 -1.</_>
        <_>
          9 4 5 2 2.</_></rects>
      <tilted>0</tilted></_>
    <_>
      <rects>
        <_>
          9 3 10 4 -1.</_>
        <_>
          9 3 5 2 2.</_>
        <_>
          14 5 5 2 2.</_></rects>
      <tilted>0</tilted></_>
    <_>
      <rects>
        <_>
          9 7 4 1 -1.</_>
        <_>
          11 7 2 1 2.</_></rects>
      <tilted>0</tilted></_>
    <_>
      <rects>
        <_>
          9 8 1 2 -1.</_>
        <_>
          9 9 1 1 2.</_></rects>
      <tilted>0</tilted></_>
    <_>
      <rects>
        <_>
          9 8 2 5 -1.</_>
        <_>
          10 8 1 5 2.</_></rects>
      <tilted>0</tilted></_>
    <_>
      <rects>
        <_>
          9 9 8 2 -1.</_>
        <_>
          9 9 4 1 2.</_>
        <_>
          13 10 4 1 2.</_></rects>
      <tilted>0</tilted></_>
    <_>
      <rects>
        <_>
          9 11 2 2 -1.</_>
        <_>
          9 11 1 1 2.</_>
        <_>
          10 12 1 1 2.</_></rects>
      <tilted>0</tilted></_>
    <_>
      <rects>
        <_>
          9 11 4 3 -1.</_>
        <_>
          11 11 2 3 2.</_></rects>
      <tilted>0</tilted></_>
    <_>
      <rects>
        <_>
          9 11 9 4 -1.</_>
        <_>
          12 11 3 4 3.</_></rects>
      <tilted>0</tilted></_>
    <_>
      <rects>
        <_>
          9 13 12 8 -1.</_>
        <_>
          9 13 6 4 2.</_>
        <_>
          15 17 6 4 2.</_></rects>
      <tilted>0</tilted></_>
    <_>
      <rects>
        <_>
          9 17 4 2 -1.</_>
        <_>
          11 17 2 2 2.</_></rects>
      <tilted>0</tilted></_>
    <_>
      <rects>
        <_>
          9 23 4 1 -1.</_>
        <_>
          11 23 2 1 2.</_></rects>
      <tilted>0</tilted></_>
    <_>
      <rects>
        <_>
          10 0 6 1 -1.</_>
        <_>
          12 0 2 1 3.</_></rects>
      <tilted>0</tilted></_>
    <_>
      <rects>
        <_>
          10 1 3 2 -1.</_>
        <_>
          11 1 1 2 3.</_></rects>
      <tilted>0</tilted></_>
    <_>
      <rects>
        <_>
          10 1 1 6 -1.</_>
        <_>
          10 3 1 2 3.</_></rects>
      <tilted>0</tilted></_>
    <_>
      <rects>
        <_>
          10 1 2 3 -1.</_>
        <_>
          10 2 2 1 3.</_></rects>
      <tilted>0</tilted></_>
    <_>
      <rects>
        <_>
          10 1 6 2 -1.</_>
        <_>
          12 1 2 2 3.</_></rects>
      <tilted>0</tilted></_>
    <_>
      <rects>
        <_>
          10 1 7 6 -1.</_>
        <_>
          10 4 7 3 2.</_></rects>
      <tilted>0</tilted></_>
    <_>
      <rects>
        <_>
          10 2 4 4 -1.</_>
        <_>
          10 4 4 2 2.</_></rects>
      <tilted>0</tilted></_>
    <_>
      <rects>
        <_>
          10 2 5 4 -1.</_>
        <_>
          10 4 5 2 2.</_></rects>
      <tilted>0</tilted></_>
    <_>
      <rects>
        <_>
          10 2 14 6 -1.</_>
        <_>
          10 2 7 3 2.</_>
        <_>
          17 5 7 3 2.</_></rects>
      <tilted>0</tilted></_>
    <_>
      <rects>
        <_>
          10 4 14 18 -1.</_>
        <_>
          17 4 7 18 2.</_></rects>
      <tilted>0</tilted></_>
    <_>
      <rects>
        <_>
          10 6 6 4 -1.</_>
        <_>
          10 6 3 2 2.</_>
        <_>
          13 8 3 2 2.</_></rects>
      <tilted>0</tilted></_>
    <_>
      <rects>
        <_>
          10 7 12 6 -1.</_>
        <_>
          14 7 4 6 3.</_></rects>
      <tilted>0</tilted></_>
    <_>
      <rects>
        <_>
          10 11 9 3 -1.</_>
        <_>
          13 11 3 3 3.</_></rects>
      <tilted>0</tilted></_>
    <_>
      <rects>
        <_>
          10 12 2 1 -1.</_>
        <_>
          11 12 1 1 2.</_></rects>
      <tilted>0</tilted></_>
    <_>
      <rects>
        <_>
          10 12 3 3 -1.</_>
        <_>
          10 13 3 1 3.</_></rects>
      <tilted>0</tilted></_>
    <_>
      <rects>
        <_>
          10 14 6 3 -1.</_>
        <_>
          12 14 2 3 3.</_></rects>
      <tilted>0</tilted></_>
    <_>
      <rects>
        <_>
          10 15 3 3 -1.</_>
        <_>
          11 15 1 3 3.</_></rects>
      <tilted>0</tilted></_>
    <_>
      <rects>
        <_>
          10 15 4 6 -1.</_>
        <_>
          10 15 2 3 2.</_>
        <_>
          12 18 2 3 2.</_></rects>
      <tilted>0</tilted></_>
    <_>
      <rects>
        <_>
          10 23 2 1 -1.</_>
        <_>
          11 23 1 1 2.</_></rects>
      <tilted>0</tilted></_>
    <_>
      <rects>
        <_>
          11 0 3 3 -1.</_>
        <_>
          12 0 1 3 3.</_></rects>
      <tilted>0</tilted></_>
    <_>
      <rects>
        <_>
          11 1 6 12 -1.</_>
        <_>
          11 5 6 4 3.</_></rects>
      <tilted>0</tilted></_>
    <_>
      <rects>
        <_>
          11 1 12 8 -1.</_>
        <_>
          11 1 6 4 2.</_>
        <_>
          17 5 6 4 2.</_></rects>
      <tilted>0</tilted></_>
    <_>
      <rects>
        <_>
          11 2 3 3 -1.</_>
        <_>
          12 2 1 3 3.</_></rects>
      <tilted>0</tilted></_>
    <_>
      <rects>
        <_>
          11 2 4 2 -1.</_>
        <_>
          13 2 2 2 2.</_></rects>
      <tilted>0</tilted></_>
    <_>
      <rects>
        <_>
          11 3 2 1 -1.</_>
        <_>
          12 3 1 1 2.</_></rects>
      <tilted>0</tilted></_>
    <_>
      <rects>
        <_>
          11 5 3 2 -1.</_>
        <_>
          11 6 3 1 2.</_></rects>
      <tilted>0</tilted></_>
    <_>
      <rects>
        <_>
          11 5 3 12 -1.</_>
        <_>
          11 11 3 6 2.</_></rects>
      <tilted>0</tilted></_>
    <_>
      <rects>
        <_>
          11 6 4 3 -1.</_>
        <_>
          13 6 2 3 2.</_></rects>
      <tilted>0</tilted></_>
    <_>
      <rects>
        <_>
          11 7 7 3 -1.</_>
        <_>
          11 8 7 1 3.</_></rects>
      <tilted>0</tilted></_>
    <_>
      <rects>
        <_>
          11 11 2 3 -1.</_>
        <_>
          12 11 1 3 2.</_></rects>
      <tilted>0</tilted></_>
    <_>
      <rects>
        <_>
          11 17 2 6 -1.</_>
        <_>
          11 20 2 3 2.</_></rects>
      <tilted>0</tilted></_>
    <_>
      <rects>
        <_>
          12 1 10 6 -1.</_>
        <_>
          12 1 5 3 2.</_>
        <_>
          17 4 5 3 2.</_></rects>
      <tilted>0</tilted></_>
    <_>
      <rects>
        <_>
          12 2 1 8 -1.</_>
        <_>
          12 6 1 4 2.</_></rects>
      <tilted>0</tilted></_>
    <_>
      <rects>
        <_>
          12 2 3 12 -1.</_>
        <_>
          12 6 3 4 3.</_></rects>
      <tilted>0</tilted></_>
    <_>
      <rects>
        <_>
          12 3 1 4 -1.</_>
        <_>
          12 5 1 2 2.</_></rects>
      <tilted>0</tilted></_>
    <_>
      <rects>
        <_>
          12 3 9 2 -1.</_>
        <_>
          15 3 3 2 3.</_></rects>
      <tilted>0</tilted></_>
    <_>
      <rects>
        <_>
          12 5 12 17 -1.</_>
        <_>
          18 5 6 17 2.</_></rects>
      <tilted>0</tilted></_>
    <_>
      <rects>
        <_>
          12 8 8 6 -1.</_>
        <_>
          12 8 4 3 2.</_>
        <_>
          16 11 4 3 2.</_></rects>
      <tilted>0</tilted></_>
    <_>
      <rects>
        <_>
          12 9 6 2 -1.</_>
        <_>
          15 9 3 2 2.</_></rects>
      <tilted>0</tilted></_>
    <_>
      <rects>
        <_>
          12 9 3 4 -1.</_>
        <_>
          12 11 3 2 2.</_></rects>
      <tilted>0</tilted></_>
    <_>
      <rects>
        <_>
          12 11 1 3 -1.</_>
        <_>
          12 12 1 1 3.</_></rects>
      <tilted>0</tilted></_>
    <_>
      <rects>
        <_>
          12 12 2 9 -1.</_>
        <_>
          12 15 2 3 3.</_></rects>
      <tilted>0</tilted></_>
    <_>
      <rects>
        <_>
          12 13 2 2 -1.</_>
        <_>
          12 13 1 1 2.</_>
        <_>
          13 14 1 1 2.</_></rects>
      <tilted>0</tilted></_>
    <_>
      <rects>
        <_>
          12 13 3 2 -1.</_>
        <_>
          13 13 1 2 3.</_></rects>
      <tilted>0</tilted></_>
    <_>
      <rects>
        <_>
          12 14 2 2 -1.</_>
        <_>
          12 14 1 1 2.</_>
        <_>
          13 15 1 1 2.</_></rects>
      <tilted>0</tilted></_>
    <_>
      <rects>
        <_>
          12 14 3 2 -1.</_>
        <_>
          13 14 1 2 3.</_></rects>
      <tilted>0</tilted></_>
    <_>
      <rects>
        <_>
          12 15 2 2 -1.</_>
        <_>
          12 15 1 1 2.</_>
        <_>
          13 16 1 1 2.</_></rects>
      <tilted>0</tilted></_>
    <_>
      <rects>
        <_>
          13 0 3 3 -1.</_>
        <_>
          14 0 1 3 3.</_></rects>
      <tilted>0</tilted></_>
    <_>
      <rects>
        <_>
          13 0 9 24 -1.</_>
        <_>
          16 0 3 24 3.</_></rects>
      <tilted>0</tilted></_>
    <_>
      <rects>
        <_>
          13 0 5 3 -1.</_>
        <_>
          13 1 5 1 3.</_></rects>
      <tilted>0</tilted></_>
    <_>
      <rects>
        <_>
          13 1 3 4 -1.</_>
        <_>
          13 3 3 2 2.</_></rects>
      <tilted>0</tilted></_>
    <_>
      <rects>
        <_>
          13 2 1 4 -1.</_>
        <_>
          13 4 1 2 2.</_></rects>
      <tilted>0</tilted></_>
    <_>
      <rects>
        <_>
          13 2 3 12 -1.</_>
        <_>
          13 6 3 4 3.</_></rects>
      <tilted>0</tilted></_>
    <_>
      <rects>
        <_>
          13 3 3 3 -1.</_>
        <_>
          13 4 3 1 3.</_></rects>
      <tilted>0</tilted></_>
    <_>
      <rects>
        <_>
          13 8 2 10 -1.</_>
        <_>
          13 8 1 5 2.</_>
        <_>
          14 13 1 5 2.</_></rects>
      <tilted>0</tilted></_>
    <_>
      <rects>
        <_>
          13 9 1 12 -1.</_>
        <_>
          13 13 1 4 3.</_></rects>
      <tilted>0</tilted></_>
    <_>
      <rects>
        <_>
          13 9 9 7 -1.</_>
        <_>
          16 9 3 7 3.</_></rects>
      <tilted>0</tilted></_>
    <_>
      <rects>
        <_>
          13 11 1 3 -1.</_>
        <_>
          13 12 1 1 3.</_></rects>
      <tilted>0</tilted></_>
    <_>
      <rects>
        <_>
